{"learner":{"attributes":{"scikit_learn":"{\"_estimator_type\": \"classifier\"}"},"feature_names":[],"feature_types":[],"gradient_booster":{"model":{"gbtree_model_param":{"num_parallel_tree":"1","num_trees":"200"},"iteration_indptr":[0,1,2,3,4,5,6,7,8,9,10,11,12,13,14,15,16,17,18,19,20,21,22,23,24,25,26,27,28,29,30,31,32,33,34,35,36,37,38,39,40,41,42,43,44,45,46,47,48,49,50,51,52,53,54,55,56,57,58,59,60,61,62,63,64,65,66,67,68,69,70,71,72,73,74,75,76,77,78,79,80,81,82,83,84,85,86,87,88,89,90,91,92,93,94,95,96,97,98,99,100,101,102,103,104,105,106,107,108,109,110,111,112,113,114,115,116,117,118,119,120,121,122,123,124,125,126,127,128,129,130,131,132,133,134,135,136,137,138,139,140,141,142,143,144,145,146,147,148,149,150,151,152,153,154,155,156,157,158,159,160,161,162,163,164,165,166,167,168,169,170,171,172,173,174,175,176,177,178,179,180,181,182,183,184,185,186,187,188,189,190,191,192,193,194,195,196,197,198,199,200],"tree_info":[0,0,0,0,0,0,0,0,0,0,0,0,0,0,0,0,0,0,0,0,0,0,0,0,0,0,0,0,0,0,0,0,0,0,0,0,0,0,0,0,0,0,0,0,0,0,0,0,0,0,0,0,0,0,0,0,0,0,0,0,0,0,0,0,0,0,0,0,0,0,0,0,0,0,0,0,0,0,0,0,0,0,0,0,0,0,0,0,0,0,0,0,0,0,0,0,0,0,0,0,0,0,0,0,0,0,0,0,0,0,0,0,0,0,0,0,0,0,0,0,0,0,0,0,0,0,0,0,0,0,0,0,0,0,0,0,0,0,0,0,0,0,0,0,0,0,0,0,0,0,0,0,0,0,0,0,0,0,0,0,0,0,0,0,0,0,0,0,0,0,0,0,0,0,0,0,0,0,0,0,0,0,0,0,0,0,0,0,0,0,0,0,0,0,0,0,0,0,0,0],"trees":[{"base_weights":[1.2487447E-3,-1.3788253E0,9.1476214E-1,-1.9373604E0,-8.2536393E-1,1.1524892E0,-1.9999743E-1,-1.9813204E0,-1.696896E0,-1.2446383E0,9.294307E-1,1.7788682E0,2.6513892E-1,-1.9846364E0,-1.7342753E0,-1.8941616E0,-2.4530664E-1,-1.9999848E-1,-5.1839775E-1,1.992603E0,-1.9486104E0,1.37665E0,1.9657042E0,-1.9979031E0,1.4309431E0,-1.962363E0,-1.9981326E-1,-1.9990923E-1,-1.400398E0,-1.939902E0,-1.3494484E0,1.9789126E0,-1.9136661E0,-8.9414936E-1,1.1360499E0,1.9947537E0,-1.9285706E-1,-1.9998898E-1,1.9916151E-1,-1.9930924E-1,1.6394421E0,1.9973724E0,-1.0319108E0,-1.9999836E-1,-1.9672343E0,9.003501E-1,1.8243135E0,-1.9999807E-1,-5.1227224E-1,1.9502401E0,-1.985276E0,-2.8099078E-1,-1.9466833E0,-1.9989537E-1,-6.626164E-1,1.9878212E-1,-1.724137E-1,-1.9967134E0,1.9745232E-1,6.8798906E-1,-1.1654259E0,1.8261077E0,8.06554E-1,1.9955878E0,1.000001E0,1.034001E0,1.8741167E0,1.9994261E0,1.026507E0,-1.7543876E0,1.9974963E-1,-1.9997711E-1,1.1211668E-1,4.5869458E-1,1.7998071E0,-9.569245E-1,1.8594555E0,6.4004374E-1,-1.6580944E0,1.9921115E-1,5.142866E-1,-1.9985698E-1,-1.7708324E0,-1.9794862E-1,1.6705892E0,-1.9999205E-1,-1.8738747E0,1.4223613E0,-1.1127508E0,-1.6190467E0,-1.9994469E-1,-5.1963735E-1,8.310813E-1,-1.90612E0,-9.4010305E-1,1.6584158E0,1.8967458E0,-1.9986866E-1,1.0604109E0,1.9966763E-1,1.8711121E0,-1.826086E-1,1.9402994E-1,1.3561114E0,-1.4872117E0,-1.9020723E0,1.9449536E0,1.9995869E0,1.4050353E0,-1.5140731E0,1.6723301E0,-1.8843274E0,1.430741E0,1.6049392E0,-1.9656643E-1,-1.4442217E0,6.1572737E-1,-1.6883107E0,1.8033048E0,-3.395597E-1,-1.9972281E-1,-8.825012E-1,1.8807577E0,1.8436714E-1,-2.3013098E-2,-1.9982854E-1,-2.2563152E-3,-1.4285707E-1,1.5200008E-1,-1.958762E-1,-1.5463908E-1,1.9745232E-1,-1.7333326E-1,3.580196E-2,-1.9364913E-1,-7.282819E-3,1.9871669E-1,-1.6767667E-1,-7.5129815E-3,-9.3333244E-2,-1.9058815E-1,1.9273792E-1,-1.0775339E-1,1.9256549E-1,6.408316E-2,6.6995166E-2,-1.9282228E-1,4.77525E-2,-1.0937029E-1,1.856697E-1,1.245284E-1,-1.958762E-1,1.9270298E-1,1.5462118E-1,6.456772E-2,-1.8666658E-1,1.9954138E-1,1.0619836E-1,1.8747233E-1,-1.9192107E-1,-1.1755542E-2,-5.1737357E-2,-1.9850354E-1,-1.1764611E-2,1.9539733E-1,1.9997555E-1,1.5940309E-1,-1.8805961E-1,1.9786106E-1,-1.9865537E-1,1.9047628E-1,1.7143957E-1,-1.764705E-1,-3.597113E-2,-1.9893625E-1,1.727836E-1,-1.826086E-1,1.8169944E-1,-1.636363E-1,-1.7120849E-1,-1.1855918E-1,1.847901E-1,4.9132206E-2,8.235302E-2,-1.9432615E-1,1.6677468E-1,1.860678E-1,4.894009E-2,-1.4416817E-1,-1.5127693E-1,2.6397241E-2,1.6438504E-1,1.9672503E-1],"categories":[],"categories_nodes":[],"categories_segments":[],"categories_sizes":[],"default_left":[0,0,0,0,0,0,0,0,0,0,0,0,0,0,0,0,0,0,0,0,0,0,0,0,0,0,0,0,0,0,0,0,0,0,0,0,0,0,0,0,0,0,0,0,0,0,0,0,0,0,0,0,0,0,0,0,0,0,0,0,0,0,0,0,0,0,0,0,0,0,0,0,0,0,0,0,0,0,0,0,0,0,0,0,0,0,0,0,0,0,0,0,0,0,0,0,0,0,0,0,0,0,0,0,0,0,0,0,0,0,0,0,0,0,0,0,0,0,0,0,0,0,0,0,0,0,0,0,0,0,0,0,0,0,0,0,0,0,0,0,0,0,0,0,0,0,0,0,0,0,0,0,0,0,0,0,0,0,0,0,0,0,0,0,0,0,0,0,0,0,0,0,0,0,0,0,0,0,0,0,0,0,0,0,0,0,0,0,0,0,0,0,0],"id":0,"left_children":[1,3,5,7,9,11,-1,13,15,17,19,21,23,25,27,29,31,-1,33,35,37,39,41,43,45,47,-1,-1,49,51,53,55,57,59,61,63,-1,-1,-1,-1,65,67,69,-1,71,73,75,-1,77,79,81,83,85,-1,87,-1,-1,89,-1,91,93,95,97,99,101,103,105,107,109,111,-1,-1,113,115,117,119,121,123,125,-1,127,-1,129,-1,131,-1,133,135,137,139,-1,141,143,145,147,149,151,-1,153,-1,155,-1,-1,157,159,161,163,165,167,169,171,173,175,177,-1,179,181,183,185,187,-1,189,191,-1,-1,-1,-1,-1,-1,-1,-1,-1,-1,-1,-1,-1,-1,-1,-1,-1,-1,-1,-1,-1,-1,-1,-1,-1,-1,-1,-1,-1,-1,-1,-1,-1,-1,-1,-1,-1,-1,-1,-1,-1,-1,-1,-1,-1,-1,-1,-1,-1,-1,-1,-1,-1,-1,-1,-1,-1,-1,-1,-1,-1,-1,-1,-1,-1,-1,-1,-1,-1,-1],"loss_changes":[2.2440072E6,2.1914988E5,7.421185E5,3.7265E3,2.619886E5,5.503964E5,0E0,2.41E2,1.5617703E4,1.5766431E5,2.101324E5,4.362E4,1.0810684E6,8.4625E1,3.4724023E2,1.19375E3,2.4222307E4,0E0,9.10943E4,4.2678125E2,3.7470938E3,1.630501E5,3.7628375E4,5E0,5.6445562E4,6.0602188E3,0E0,0E0,3.4421907E3,4.9775E2,1.6595088E3,9.572168E1,1.20829E3,5.1252195E4,6.165004E3,3.959375E1,0E0,0E0,0E0,0E0,2.4265812E4,7.80125E2,9.073928E3,0E0,6.031719E2,4.573935E4,1.5180906E4,0E0,3.7125632E3,1.4683228E1,7.207031E-1,6.0493396E2,1.6725E2,0E0,1.7012423E3,0E0,0E0,5.332031E-1,0E0,3.02075E3,1.701064E4,1.00666016E2,1.307521E4,3.046875E0,1.2046723E2,3.8750375E4,3.292925E4,3.45E1,1.3643674E3,1.387832E3,0E0,0E0,4.3197284E2,2.3077209E4,4.6566406E2,1.2443169E3,8.95975E3,1.4690938E3,7.8432935E2,0E0,1.9268572E1,0E0,1.0201721E0,0E0,9.136076E1,0E0,2.6068555E3,2.7207086E2,8.718739E2,4.416809E0,0E0,2.5307354E3,3.2530205E3,1.3550234E3,1.7019773E4,2.111206E2,7.22959E2,0E0,3.3908848E3,0E0,2.128003E2,0E0,0E0,6.451672E3,3.1983027E3,2.5940332E2,2.2480312E3,2.3625E1,2.0960881E2,2.7637143E2,9.877417E1,5.1428906E2,1.3063477E2,5.86474E1,0E0,4.0582422E2,1.09345E4,2.6255577E1,2.915E2,1.113261E3,0E0,8.5521826E2,3.1151875E3,0E0,0E0,0E0,0E0,0E0,0E0,0E0,0E0,0E0,0E0,0E0,0E0,0E0,0E0,0E0,0E0,0E0,0E0,0E0,0E0,0E0,0E0,0E0,0E0,0E0,0E0,0E0,0E0,0E0,0E0,0E0,0E0,0E0,0E0,0E0,0E0,0E0,0E0,0E0,0E0,0E0,0E0,0E0,0E0,0E0,0E0,0E0,0E0,0E0,0E0,0E0,0E0,0E0,0E0,0E0,0E0,0E0,0E0,0E0,0E0,0E0,0E0,0E0,0E0,0E0,0E0,0E0,0E0,0E0,0E0],"parents":[2147483647,0,0,1,1,2,2,3,3,4,4,5,5,7,7,8,8,9,9,10,10,11,11,12,12,13,13,14,14,15,15,16,16,18,18,19,19,20,20,21,21,22,22,23,23,24,24,25,25,28,28,29,29,30,30,31,31,32,32,33,33,34,34,35,35,40,40,41,41,42,42,44,44,45,45,46,46,48,48,49,49,50,50,51,51,52,52,54,54,57,57,59,59,60,60,61,61,62,62,63,63,64,64,65,65,66,66,67,67,68,68,69,69,72,72,73,73,74,74,75,75,76,76,77,77,78,78,80,80,82,82,84,84,86,86,87,87,88,88,89,89,91,91,92,92,93,93,94,94,95,95,96,96,98,98,100,100,103,103,104,104,105,105,106,106,107,107,108,108,109,109,110,110,111,111,112,112,113,113,115,115,116,116,117,117,118,118,119,119,121,121,122,122],"right_children":[2,4,6,8,10,12,-1,14,16,18,20,22,24,26,28,30,32,-1,34,36,38,40,42,44,46,48,-1,-1,50,52,54,56,58,60,62,64,-1,-1,-1,-1,66,68,70,-1,72,74,76,-1,78,80,82,84,86,-1,88,-1,-1,90,-1,92,94,96,98,100,102,104,106,108,110,112,-1,-1,114,116,118,120,122,124,126,-1,128,-1,130,-1,132,-1,134,136,138,140,-1,142,144,146,148,150,152,-1,154,-1,156,-1,-1,158,160,162,164,166,168,170,172,174,176,178,-1,180,182,184,186,188,-1,190,192,-1,-1,-1,-1,-1,-1,-1,-1,-1,-1,-1,-1,-1,-1,-1,-1,-1,-1,-1,-1,-1,-1,-1,-1,-1,-1,-1,-1,-1,-1,-1,-1,-1,-1,-1,-1,-1,-1,-1,-1,-1,-1,-1,-1,-1,-1,-1,-1,-1,-1,-1,-1,-1,-1,-1,-1,-1,-1,-1,-1,-1,-1,-1,-1,-1,-1,-1,-1,-1,-1],"split_conditions":[-2.8865558E-1,-3.0587584E-1,1.4995328E0,-3.063211E-1,2.691214E0,-2.9813913E-1,-1.9999743E-1,2.3743029E0,2.691214E0,1.318317E0,-3.36048E-1,2.691214E0,1.318317E0,-3.0160806E-1,1.318317E0,1.0176953E0,-3.36048E-1,-1.9999848E-1,1.0176953E0,-3.0698666E-1,1.318317E0,-3.2373834E-1,-3.1889445E-1,2.691214E0,-1.9814965E-1,1.318317E0,-1.9981326E-1,-1.9990923E-1,-3.285627E-1,-1.6423193E0,1.318317E0,-3.08042E-1,1.318317E0,-3.2250255E-1,-3.2250255E-1,-3.1098488E-1,-1.9285706E-1,-1.9998898E-1,1.9916151E-1,-1.9930924E-1,-2.3382854E-1,-3.34801E-1,1.318317E0,-1.9999836E-1,6.978379E-2,1.0176953E0,-2.255075E-1,-1.9999807E-1,-3.135168E-1,-3.36048E-1,2.926256E0,1.318317E0,1.318317E0,-1.9989537E-1,-3.285627E-1,1.9878212E-1,-1.724137E-1,-1.6356694E0,1.9745232E-1,-1.396268E0,-3.0698666E-1,-2.9918826E-1,-3.089428E-1,-3.1423506E-1,1.318317E0,-2.7813134E-1,-2.7813134E-1,-3.117829E-1,-2.3382854E-1,2.163336E-2,1.9974963E-1,-1.9997711E-1,-2.554738E-1,-1.396268E0,-3.0308867E-1,-1.4490622E-1,-1.5558689E0,-3.36048E-1,-3.0914047E-1,1.9921115E-1,-3.0698666E-1,-1.9985698E-1,-1.3233879E-2,-1.9794862E-1,-3.36048E-1,-1.9999205E-1,-3.36048E-1,-3.0698666E-1,-1.7710248E-2,-2.6310506E-1,-1.9994469E-1,-1.6423193E0,-8.3766496E-1,-1.6356694E0,-2.9464012E-1,-3.3230737E-1,-3.3230737E-1,-1.9986866E-1,1.7491994E0,1.9966763E-1,1.318317E0,-1.826086E-1,1.9402994E-1,9.977452E-1,-2.5258303E-1,-2.3141949E-1,-1.5558689E0,-3.36048E-1,1.318317E0,1.318317E0,-3.099819E-1,-3.1031466E-1,-1.3214853E-1,1.8743946E-1,-1.9656643E-1,-1.5558689E0,-8.3766496E-1,1.0974958E0,-2.7021128E-1,-2.7616704E-1,-1.9972281E-1,1.909887E-3,-9.114465E-2,1.8436714E-1,-2.3013098E-2,-1.9982854E-1,-2.2563152E-3,-1.4285707E-1,1.5200008E-1,-1.958762E-1,-1.5463908E-1,1.9745232E-1,-1.7333326E-1,3.580196E-2,-1.9364913E-1,-7.282819E-3,1.9871669E-1,-1.6767667E-1,-7.5129815E-3,-9.3333244E-2,-1.9058815E-1,1.9273792E-1,-1.0775339E-1,1.9256549E-1,6.408316E-2,6.6995166E-2,-1.9282228E-1,4.77525E-2,-1.0937029E-1,1.856697E-1,1.245284E-1,-1.958762E-1,1.9270298E-1,1.5462118E-1,6.456772E-2,-1.8666658E-1,1.9954138E-1,1.0619836E-1,1.8747233E-1,-1.9192107E-1,-1.1755542E-2,-5.1737357E-2,-1.9850354E-1,-1.1764611E-2,1.9539733E-1,1.9997555E-1,1.5940309E-1,-1.8805961E-1,1.9786106E-1,-1.9865537E-1,1.9047628E-1,1.7143957E-1,-1.764705E-1,-3.597113E-2,-1.9893625E-1,1.727836E-1,-1.826086E-1,1.8169944E-1,-1.636363E-1,-1.7120849E-1,-1.1855918E-1,1.847901E-1,4.9132206E-2,8.235302E-2,-1.9432615E-1,1.6677468E-1,1.860678E-1,4.894009E-2,-1.4416817E-1,-1.5127693E-1,2.6397241E-2,1.6438504E-1,1.9672503E-1],"split_indices":[2,2,8,2,9,4,0,0,9,6,5,9,6,4,6,0,5,0,0,4,6,5,5,9,2,6,0,0,5,0,6,4,6,5,5,4,0,0,0,0,2,5,6,0,2,0,5,0,4,5,0,6,6,0,5,0,0,0,0,0,4,2,4,4,6,5,5,4,2,2,0,0,4,0,5,2,0,5,5,0,4,0,4,0,5,0,5,4,4,5,0,0,0,0,5,5,5,0,0,0,6,0,0,0,2,2,0,5,6,6,4,5,5,2,0,0,0,0,2,4,0,2,2,0,0,0,0,0,0,0,0,0,0,0,0,0,0,0,0,0,0,0,0,0,0,0,0,0,0,0,0,0,0,0,0,0,0,0,0,0,0,0,0,0,0,0,0,0,0,0,0,0,0,0,0,0,0,0,0,0,0,0,0,0,0,0,0,0,0,0,0,0,0],"split_type":[0,0,0,0,0,0,0,0,0,0,0,0,0,0,0,0,0,0,0,0,0,0,0,0,0,0,0,0,0,0,0,0,0,0,0,0,0,0,0,0,0,0,0,0,0,0,0,0,0,0,0,0,0,0,0,0,0,0,0,0,0,0,0,0,0,0,0,0,0,0,0,0,0,0,0,0,0,0,0,0,0,0,0,0,0,0,0,0,0,0,0,0,0,0,0,0,0,0,0,0,0,0,0,0,0,0,0,0,0,0,0,0,0,0,0,0,0,0,0,0,0,0,0,0,0,0,0,0,0,0,0,0,0,0,0,0,0,0,0,0,0,0,0,0,0,0,0,0,0,0,0,0,0,0,0,0,0,0,0,0,0,0,0,0,0,0,0,0,0,0,0,0,0,0,0,0,0,0,0,0,0,0,0,0,0,0,0,0,0,0,0,0,0],"sum_hessian":[1.7799445E6,7.0893425E5,1.0710102E6,3.528485E5,3.5608575E5,9.90246E5,8.076425E4,2.98307E5,5.45415E4,2.87414E5,6.867175E4,5.80483E5,4.09763E5,2.94349E5,3.958E3,4.8016E4,6.5255E3,1.40883E5,1.46531E5,5.014725E4,1.85245E4,1.8412E5,3.96363E5,1.3931875E5,2.7044425E5,1.11116E5,1.83233E5,2.2045E3,1.7535E3,4.4294E4,3.722E3,2.79675E3,3.72875E3,1.1941125E5,2.711975E4,5.012025E4,2.7E1,1.8287E4,2.375E2,1.33195E4,1.708005E5,3.9221975E5,4.14325E3,1.3040775E5,8.911E3,1.15141E5,1.5530325E5,1.08306E5,2.81E3,2.6025E2,1.49325E3,1.805E2,4.41135E4,1.912E3,1.81E3,2.7905E3,6.25E0,3.65125E3,7.75E1,1.74775E4,1.0193375E5,8.763E3,1.835675E4,5.007725E4,4.3E1,4.771225E4,1.2308825E5,3.9139075E5,8.29E2,3.34575E3,7.975E2,8.77375E3,1.3725E2,7.722375E4,3.791725E4,1.9375E3,1.5336575E5,1.40125E3,1.40875E3,2.525E2,7.75E0,1.39825E3,9.5E1,9.65E1,8.4E1,2.546625E4,1.864725E4,3.21E2,1.489E3,3.05E1,3.62075E3,1.85125E3,1.562625E4,2.377425E4,7.81595E4,2.6045E3,6.1585E3,1.52275E3,1.6834E4,4.962825E4,4.49E2,1.05E1,3.25E1,4.23075E4,5.40475E3,2.266E3,1.2082225E5,3.912825E5,1.0825E2,1.6775E2,6.6125E2,3.215E3,1.3075E2,8E1,5.725E1,5.88625E3,7.13375E4,3.75E1,3.787975E4,1.21675E3,7.2075E2,1.182E3,1.5218375E5,5.875E2,8.1375E2,1.166E3,2.4275E2,2.5E0,5.25E0,4.75E1,4.75E1,7.75E1,6.5E0,5.0875E2,1.81385E4,8.825E1,2.3275E2,9.6425E2,5.2475E2,1.025E1,2.025E1,3.4325E2,1.508E3,2.3125E3,1.331375E4,2.02E2,2.357225E4,7.6405E3,7.0519E4,1.7575E3,8.47E2,4.75E1,6.111E3,7.7515E3,9.0825E3,1.4E1,4.35E2,2.69985E4,1.5309E4,4.1085E3,1.29625E3,1.285E2,2.1375E3,5.26E2,1.2029625E5,3.91116E5,1.665E2,1.575E1,9.25E1,1.4775E2,2E1,6.5375E2,7.5E0,2.075E2,3.0075E3,1.2025E2,1.05E1,7.55E1,4.5E0,2.88875E3,2.9975E3,6.54075E3,6.479675E4,3.25E0,3.425E1,1.12735E4,2.660625E4,6.9475E2,5.22E2,7.625E2,4.195E2,4.07065E4,1.1147725E5],"tree_param":{"num_deleted":"0","num_feature":"10","num_nodes":"193","size_leaf_vector":"1"}},{"base_weights":[-4.7255386E-4,-1.2477987E0,8.3426833E-1,-1.762238E0,-7.450231E-1,1.6579574E0,-1.5923932E0,-1.8017521E0,-1.546452E0,-1.1266073E0,8.501733E-1,1.0770364E0,1.7521092E0,-1.840194E0,1.3734257E0,-1.8045845E0,-1.5894096E0,-1.7193578E0,-2.5228155E-1,-1.8187247E-1,-4.658134E-1,1.811988E0,-1.7710334E0,1.7617514E0,2.4836299E-1,1.8966284E-1,1.7593664E0,-1.8189886E-1,-2.0018492E0,1.812642E0,-1.5884532E0,-1.8186942E-1,-1.7898586E0,-1.8179701E-1,-1.2982723E0,-1.7618291E0,-1.2125098E0,1.7969391E-1,-1.7378759E0,-8.055123E-1,1.0305988E0,1.8142582E0,-2.1036331E-1,-1.8186727E-1,1.8119489E-1,1.7686365E0,-1.8031327E-1,-2.0457014E-1,1.4697479E0,1.6010485E0,-4.832812E-1,1.5819513E0,1.8046052E0,-1.821755E-1,-2.0201774E0,-1.956886E-1,1.817117E0,-1.8254842E0,7.498633E-1,-1.7986405E0,1.8315898E-1,1.7677655E0,-1.8052968E0,-2.649586E-1,-1.7679605E0,-1.817851E-1,-5.801387E-1,-1.815817E0,1.7981237E-1,6.1756873E-1,-1.0490265E0,1.6327918E0,7.1256334E-1,1.7134235E0,1.8165717E-1,6.805909E-1,1.7774696E0,-1.8185823E-1,7.401124E-3,-1.8124433E-1,1.5385805E0,6.3052005E-1,1.7736363E0,-1.1487874E0,1.5874889E0,1.7733326E0,1.1932477E0,1.751584E0,1.8169402E0,-1.9031494E0,-2.0466893E0,1.2944055E-1,1.817948E-1,-1.8329513E-1,1.5132563E-1,1.4477522E0,-1.7898847E-1,-5.922379E-1,-1.8045497E0,1.811592E-1,7.181328E-1,-1.8175307E-1,-1.6047556E0,-1.80175E-1,1.51864E0,-1.8186645E-1,-1.6990994E0,1.2933561E0,-9.740173E-1,-1.4768492E0,-1.8182682E-1,9.72589E-1,-2.036769E0,-1.2320957E0,-8.1408554E-1,1.6971513E0,-2.0597044E-1,1.2553507E0,2.868847E-1,1.7246513E0,-1.5497781E-1,-1.1774174E0,1.6404191E0,1.8067826E0,1.5950994E0,-1.3083012E0,1.4740978E-1,1.6807058E0,1.4352944E0,-1.3256216E0,1.705028E0,1.78089E-1,-1.1535131E-1,1.4164855E0,-1.227037E0,-1.6290234E0,1.9828579E-1,1.8147249E0,1.5961945E0,-1.8182418E-1,1.3753103E0,1.8064241E0,1.5403953E0,1.8103284E0,1.8231764E-1,-1.9165238E0,-1.2992965E0,-2.0082092E0,-2.1030877E0,-1.5555802E-1,1.5130968E-1,1.6313759E0,-1.7727715E-1,-1.784154E-1,1.0034811E-1,-1.7528401E-1,-1.8154532E-1,1.18211366E-1,-1.185809E-1,-1.3873592E-1,-1.8120866E-1,1.797401E-1,-1.593809E-1,3.4412947E-2,-1.7569725E-1,2.7458921E-2,1.7168584E-1,-1.4731607E-1,-1.783974E-2,-8.7309904E-2,-1.738743E-1,7.20449E-2,1.6126065E-1,-1.8929398E-1,-2.0612894E-1,-9.7649455E-2,-1.3990939E-1,-1.593307E-1,-7.0182696E-2,1.5124166E-1,1.7710374E-1,1.2792121E-1,-2.1257198E-1,-4.9509886E-3,9.2445664E-2,1.7839588E-1,1.6773212E-1,-1.8219662E-1,-5.6347992E-2,1.7296243E-1,-1.6607665E-1,1.7417495E-1,1.8174455E-1,8.378673E-2,1.7740923E-1,-1.4962006E-1,-6.682541E-2,1.6838776E-1,-1.7743217E-3,1.6829555E-1,-1.6654648E-1,1.3158236E-1,1.5773977E-1,-1.6491209E-1,1.3639393E-1,1.769703E-1,-1.2416234E-1,-1.5256183E-1,1.8084426E-1,-6.946541E-2,-1.48035E-1,9.224794E-2,-1.7861019E-1,1.819294E-1,1.7523538E-1,-1.8022798E-1,1.616791E-1,1.1605235E-1,1.7402244E-1,1.5594977E-1,1.8080744E-1,-1.8171416E-1,1.7159842E-1,1.8183053E-1,-1.8150935E-1,-1.8769264E-1,-1.9788305E-1,-2.147613E-1,-1.04019875E-2,-2.036118E-1,-1.4783014E-1,-2.0602892E-1,-2.185875E-1,1.7712286E-1,4.2128924E-2],"categories":[],"categories_nodes":[],"categories_segments":[],"categories_sizes":[],"default_left":[0,0,0,0,0,0,0,0,0,0,0,0,0,0,0,0,0,0,0,0,0,0,0,0,0,0,0,0,0,0,0,0,0,0,0,0,0,0,0,0,0,0,0,0,0,0,0,0,0,0,0,0,0,0,0,0,0,0,0,0,0,0,0,0,0,0,0,0,0,0,0,0,0,0,0,0,0,0,0,0,0,0,0,0,0,0,0,0,0,0,0,0,0,0,0,0,0,0,0,0,0,0,0,0,0,0,0,0,0,0,0,0,0,0,0,0,0,0,0,0,0,0,0,0,0,0,0,0,0,0,0,0,0,0,0,0,0,0,0,0,0,0,0,0,0,0,0,0,0,0,0,0,0,0,0,0,0,0,0,0,0,0,0,0,0,0,0,0,0,0,0,0,0,0,0,0,0,0,0,0,0,0,0,0,0,0,0,0,0,0,0,0,0,0,0,0,0,0,0,0,0,0,0,0,0,0,0,0,0,0,0,0,0,0,0,0,0,0,0,0,0,0,0,0,0,0,0,0,0,0,0,0,0,0,0],"id":1,"left_children":[1,3,5,7,9,11,13,15,17,19,21,23,25,27,29,31,33,35,37,-1,39,41,43,45,47,49,51,-1,53,55,57,-1,59,-1,61,63,65,-1,67,69,71,73,-1,-1,-1,75,-1,77,79,81,83,85,87,-1,89,-1,91,93,95,97,-1,99,101,103,105,-1,107,109,-1,111,113,115,117,119,-1,121,123,-1,125,-1,127,129,131,133,135,137,139,141,143,145,147,149,-1,-1,-1,151,-1,153,155,-1,157,-1,159,-1,161,-1,163,165,167,169,-1,171,173,175,177,179,-1,181,183,185,-1,187,189,191,193,195,197,199,201,203,205,-1,-1,207,209,211,-1,213,215,-1,217,219,221,223,-1,225,227,229,231,-1,-1,233,-1,-1,-1,-1,-1,-1,-1,-1,-1,-1,-1,-1,-1,-1,-1,-1,-1,-1,-1,-1,-1,-1,-1,-1,-1,-1,-1,-1,-1,-1,-1,-1,-1,-1,-1,-1,-1,-1,-1,-1,-1,-1,-1,-1,-1,-1,-1,-1,-1,-1,-1,-1,-1,-1,-1,-1,-1,-1,-1,-1,-1,-1,-1,-1,-1,-1,-1,-1,-1,-1,-1,-1,-1,-1,-1,-1,-1,-1,-1,-1,-1,-1,-1],"loss_changes":[1.8358468E6,1.8283812E5,2.111364E6,2.9765E3,2.1761647E5,4.31315E4,1.9673281E5,1.746875E2,1.2102227E4,1.3194247E5,1.739889E5,6.2409062E4,7.69475E3,8.431875E2,2.6855691E4,5.73125E1,2.5687207E2,1.0249062E3,1.941221E4,0E0,7.502503E4,4.5259375E2,3.1654727E3,1.4814375E3,2.7530777E4,2.9818276E3,5.418875E3,0E0,9.085156E1,3.0679297E2,1.4791128E3,0E0,4.5403125E3,0E0,2.6720837E3,4.0353125E2,1.4122539E3,0E0,1.02203613E3,4.1684156E4,5.228449E3,8.65625E0,0E0,0E0,0E0,5.765156E2,0E0,1.2420425E4,3.0442754E3,1.6865723E2,2.9318086E3,1.0208375E4,3.4875E2,0E0,7.671875E1,0E0,2.4953125E1,6.31333E1,4.387953E2,1.0135E3,0E0,9.929199E0,6.9873047E-1,4.9818097E2,1.4996875E2,0E0,1.334822E3,3.1933594E-1,0E0,1.6564611E4,4.4165703E3,2.2460098E3,4.128716E3,4.478125E1,0E0,8.681082E2,3.1585938E2,0E0,5.911564E3,0E0,1.911582E2,3.27174E2,2.0313965E1,3.248296E2,6.6136304E2,6.714375E2,2.4831992E4,1.1740625E3,1.4625E1,3.6384766E1,4.1726562E1,2.546648E1,0E0,0E0,0E0,1.1738321E2,0E0,1.3240035E3,7.665625E1,0E0,1.1509033E1,0E0,1.690155E0,0E0,7.591992E1,0E0,2.2007852E3,1.3516058E2,5.9296924E2,3.430481E0,0E0,2.5006504E3,3.4111328E0,2.4626562E3,3.933918E3,1.23921875E2,0E0,6.3640234E2,2.1484756E3,2.241211E-1,0E0,6.467081E1,9.730548E1,3.2453125E1,1.118793E3,3.7019922E2,7.3600923E3,4.4538086E1,1.2769141E2,5.042434E1,2.1295319E1,0E0,0E0,5.8236366E1,2.0968433E2,2.4571945E1,0E0,1.80625E1,1.2228438E3,0E0,3.3451406E3,3.003125E1,1.2356141E4,6.136375E3,0E0,7.9003906E0,1.08684845E2,1.834336E2,2.584375E1,0E0,0E0,3.0339142E1,0E0,0E0,0E0,0E0,0E0,0E0,0E0,0E0,0E0,0E0,0E0,0E0,0E0,0E0,0E0,0E0,0E0,0E0,0E0,0E0,0E0,0E0,0E0,0E0,0E0,0E0,0E0,0E0,0E0,0E0,0E0,0E0,0E0,0E0,0E0,0E0,0E0,0E0,0E0,0E0,0E0,0E0,0E0,0E0,0E0,0E0,0E0,0E0,0E0,0E0,0E0,0E0,0E0,0E0,0E0,0E0,0E0,0E0,0E0,0E0,0E0,0E0,0E0,0E0,0E0,0E0,0E0,0E0,0E0,0E0,0E0,0E0,0E0,0E0,0E0,0E0,0E0,0E0,0E0,0E0,0E0,0E0,0E0],"parents":[2147483647,0,0,1,1,2,2,3,3,4,4,5,5,6,6,7,7,8,8,9,9,10,10,11,11,12,12,13,13,14,14,15,15,16,16,17,17,18,18,20,20,21,21,22,22,23,23,24,24,25,25,26,26,28,28,29,29,30,30,32,32,34,34,35,35,36,36,38,38,39,39,40,40,41,41,45,45,47,47,48,48,49,49,50,50,51,51,52,52,54,54,56,56,57,57,58,58,59,59,61,61,62,62,63,63,64,64,66,66,67,67,69,69,70,70,71,71,72,72,73,73,75,75,76,76,78,78,80,80,81,81,82,82,83,83,84,84,85,85,86,86,87,87,88,88,89,89,90,90,91,91,95,95,97,97,98,98,100,100,102,102,104,104,106,106,107,107,108,108,109,109,111,111,112,112,113,113,114,114,115,115,117,117,118,118,119,119,121,121,122,122,123,123,124,124,125,125,126,126,127,127,128,128,129,129,130,130,133,133,134,134,135,135,137,137,138,138,140,140,141,141,142,142,143,143,145,145,146,146,147,147,148,148,151,151],"right_children":[2,4,6,8,10,12,14,16,18,20,22,24,26,28,30,32,34,36,38,-1,40,42,44,46,48,50,52,-1,54,56,58,-1,60,-1,62,64,66,-1,68,70,72,74,-1,-1,-1,76,-1,78,80,82,84,86,88,-1,90,-1,92,94,96,98,-1,100,102,104,106,-1,108,110,-1,112,114,116,118,120,-1,122,124,-1,126,-1,128,130,132,134,136,138,140,142,144,146,148,150,-1,-1,-1,152,-1,154,156,-1,158,-1,160,-1,162,-1,164,166,168,170,-1,172,174,176,178,180,-1,182,184,186,-1,188,190,192,194,196,198,200,202,204,206,-1,-1,208,210,212,-1,214,216,-1,218,220,222,224,-1,226,228,230,232,-1,-1,234,-1,-1,-1,-1,-1,-1,-1,-1,-1,-1,-1,-1,-1,-1,-1,-1,-1,-1,-1,-1,-1,-1,-1,-1,-1,-1,-1,-1,-1,-1,-1,-1,-1,-1,-1,-1,-1,-1,-1,-1,-1,-1,-1,-1,-1,-1,-1,-1,-1,-1,-1,-1,-1,-1,-1,-1,-1,-1,-1,-1,-1,-1,-1,-1,-1,-1,-1,-1,-1,-1,-1,-1,-1,-1,-1,-1,-1,-1,-1,-1,-1,-1,-1],"split_conditions":[-2.882843E-1,-3.0587584E-1,-2.783059E-1,-3.063211E-1,2.691214E0,-2.6820746E-1,2.691214E0,2.3743029E0,2.691214E0,1.318317E0,-3.36048E-1,-3.0679256E-1,-1.5558689E0,1.318317E0,-3.36048E-1,1.318317E0,1.318317E0,1.0176953E0,-3.36048E-1,-1.8187247E-1,1.0176953E0,-2.783059E-1,1.318317E0,1.4995328E0,1.0176953E0,-3.0193245E-1,-2.2309412E-1,-1.8189886E-1,-3.2373834E-1,-1.9421898E-1,4.2318325E-2,-1.8186942E-1,2.691214E0,-1.8179701E-1,-3.285627E-1,-1.6423193E0,1.318317E0,1.7969391E-1,1.318317E0,-3.2250255E-1,-3.1889445E-1,-1.562519E0,-2.1036331E-1,-1.8186727E-1,1.8119489E-1,-1.5558689E0,-1.8031327E-1,1.318317E0,1.318317E0,2.691214E0,-1.2313767E-1,-2.574559E-1,-1.6481549E-1,-1.821755E-1,-8.3766496E-1,-1.956886E-1,-1.5824691E0,1.318317E0,-5.6035228E-2,-3.36048E-1,1.8315898E-1,-3.36048E-1,2.926256E0,1.318317E0,1.318317E0,-1.817851E-1,-3.285627E-1,-1.6356694E0,1.7981237E-1,-2.783059E-1,-2.990783E-1,-2.783059E-1,1.7491994E0,-2.913629E-1,1.8165717E-1,2.691214E0,-3.1526834E-1,-1.8185823E-1,-1.396268E0,-1.8124433E-1,1.7491994E0,-3.055623E-1,-3.1031466E-1,-1.6423193E0,1.318317E0,-2.9224086E-1,1.318317E0,-1.8290527E-1,1.318317E0,-1.3763179E0,-1.4706281E-1,7.630118E-1,1.817948E-1,-1.8329513E-1,1.5132563E-1,1.8743946E-1,-1.7898847E-1,-2.9901198E-1,-8.3766496E-1,1.811592E-1,2.8331554E0,-1.8175307E-1,-6.0074374E-2,-1.80175E-1,-3.36048E-1,-1.8186645E-1,-3.36048E-1,-3.2983568E-1,-6.404128E-2,-2.6310506E-1,-1.8182682E-1,-2.9551807E-1,-1.396268E0,-2.515535E-1,-1.396268E0,-2.9918826E-1,-2.0597044E-1,-2.783059E-1,-2.9525742E-1,-1.6423193E0,-1.5497781E-1,-3.2011858E-1,-3.3355743E-1,2.691214E0,-2.7907404E-1,1.8187124E-1,-8.3766496E-1,3.8336732E0,-6.0074374E-2,-1.5843879E-1,-2.6235056E-1,1.78089E-1,-1.1535131E-1,1.318317E0,-1.8745987E-1,-1.3214853E-1,1.9828579E-1,-2.9955983E-1,1.318317E0,-1.8182418E-1,9.977452E-1,-1.4029181E0,1.318317E0,-1.3214853E-1,1.8231764E-1,-1.4694184E0,-2.0512004E-1,-1.6585113E-1,-1.9814965E-1,-1.5555802E-1,1.5130968E-1,-1.0656282E-2,-1.7727715E-1,-1.784154E-1,1.0034811E-1,-1.7528401E-1,-1.8154532E-1,1.18211366E-1,-1.185809E-1,-1.3873592E-1,-1.8120866E-1,1.797401E-1,-1.593809E-1,3.4412947E-2,-1.7569725E-1,2.7458921E-2,1.7168584E-1,-1.4731607E-1,-1.783974E-2,-8.7309904E-2,-1.738743E-1,7.20449E-2,1.6126065E-1,-1.8929398E-1,-2.0612894E-1,-9.7649455E-2,-1.3990939E-1,-1.593307E-1,-7.0182696E-2,1.5124166E-1,1.7710374E-1,1.2792121E-1,-2.1257198E-1,-4.9509886E-3,9.2445664E-2,1.7839588E-1,1.6773212E-1,-1.8219662E-1,-5.6347992E-2,1.7296243E-1,-1.6607665E-1,1.7417495E-1,1.8174455E-1,8.378673E-2,1.7740923E-1,-1.4962006E-1,-6.682541E-2,1.6838776E-1,-1.7743217E-3,1.6829555E-1,-1.6654648E-1,1.3158236E-1,1.5773977E-1,-1.6491209E-1,1.3639393E-1,1.769703E-1,-1.2416234E-1,-1.5256183E-1,1.8084426E-1,-6.946541E-2,-1.48035E-1,9.224794E-2,-1.7861019E-1,1.819294E-1,1.7523538E-1,-1.8022798E-1,1.616791E-1,1.1605235E-1,1.7402244E-1,1.5594977E-1,1.8080744E-1,-1.8171416E-1,1.7159842E-1,1.8183053E-1,-1.8150935E-1,-1.8769264E-1,-1.9788305E-1,-2.147613E-1,-1.04019875E-2,-2.036118E-1,-1.4783014E-1,-2.0602892E-1,-2.185875E-1,1.7712286E-1,4.2128924E-2],"split_indices":[2,2,3,2,9,2,9,0,9,6,5,5,0,6,5,6,6,0,5,0,0,3,6,8,0,5,2,0,5,2,2,0,9,0,5,0,6,0,6,5,5,0,0,0,0,0,0,6,6,9,2,5,2,0,0,0,0,6,5,5,0,5,0,6,6,0,5,0,0,3,2,3,0,2,0,9,5,0,0,0,0,5,5,0,6,5,6,5,6,0,5,2,0,0,0,2,0,0,0,0,0,0,5,0,5,0,5,5,5,5,0,2,0,5,0,2,0,3,2,0,0,5,5,9,2,5,0,5,5,2,2,0,0,6,5,5,0,5,6,0,0,0,6,5,0,0,3,5,2,0,0,3,0,0,0,0,0,0,0,0,0,0,0,0,0,0,0,0,0,0,0,0,0,0,0,0,0,0,0,0,0,0,0,0,0,0,0,0,0,0,0,0,0,0,0,0,0,0,0,0,0,0,0,0,0,0,0,0,0,0,0,0,0,0,0,0,0,0,0,0,0,0,0,0,0,0,0,0,0,0,0,0,0,0,0],"split_type":[0,0,0,0,0,0,0,0,0,0,0,0,0,0,0,0,0,0,0,0,0,0,0,0,0,0,0,0,0,0,0,0,0,0,0,0,0,0,0,0,0,0,0,0,0,0,0,0,0,0,0,0,0,0,0,0,0,0,0,0,0,0,0,0,0,0,0,0,0,0,0,0,0,0,0,0,0,0,0,0,0,0,0,0,0,0,0,0,0,0,0,0,0,0,0,0,0,0,0,0,0,0,0,0,0,0,0,0,0,0,0,0,0,0,0,0,0,0,0,0,0,0,0,0,0,0,0,0,0,0,0,0,0,0,0,0,0,0,0,0,0,0,0,0,0,0,0,0,0,0,0,0,0,0,0,0,0,0,0,0,0,0,0,0,0,0,0,0,0,0,0,0,0,0,0,0,0,0,0,0,0,0,0,0,0,0,0,0,0,0,0,0,0,0,0,0,0,0,0,0,0,0,0,0,0,0,0,0,0,0,0,0,0,0,0,0,0,0,0,0,0,0,0,0,0,0,0,0,0,0,0,0,0,0,0],"sum_hessian":[1.7632108E6,7.0690506E5,1.0563058E6,3.4939847E5,3.5750656E5,7.8862175E5,2.6768397E5,2.9531412E5,5.408433E4,2.884962E5,6.90104E4,1.0999009E5,6.786317E5,2.4704331E5,2.0640637E4,2.914194E5,3.894727E3,4.7709797E4,6.3745283E3,1.4090752E5,1.4758866E5,5.0485695E4,1.8524703E4,6.022574E4,4.976436E4,3.1376665E3,6.75494E5,2.1840581E5,2.863751E4,1.7975451E4,2.665187E3,1.487617E5,1.4265772E5,2.1789077E3,1.7158193E3,4.4018773E4,3.6910254E3,2.678967E3,3.6955615E3,1.2028366E5,2.7305004E4,5.0456977E4,2.8716187E1,1.8282115E4,2.4258649E2,6.0110145E4,1.1559026E2,3.6302812E4,1.3461546E4,1.01257776E3,2.1250886E3,1.3725405E5,5.3823994E5,2.6545063E3,2.5983004E4,2.0796864E1,1.7954654E4,2.4200864E3,2.4510059E2,1.4231311E5,3.446023E2,2.4312527E2,1.472694E3,1.7975201E2,4.383902E4,1.8848583E3,1.8061672E3,3.6163362E3,7.9225296E1,1.7574996E4,1.0270866E5,9.435313E3,1.786969E4,1.148293E3,4.9308684E4,4.8469693E2,5.962545E4,4.2133716E3,3.208944E4,2.7599033E2,1.3185556E4,1.5358174E2,8.5899603E2,1.6085701E3,5.165186E2,9.196887E4,4.5285184E4,1.01611125E5,4.366288E5,4.8125205E3,2.1170482E4,8.913293E0,1.794574E4,2.415136E3,4.9504557E0,1.926052E2,5.2495384E1,6.941835E2,1.4161892E5,2.3268385E2,1.0441425E1,1.3804194E3,9.227456E1,9.6551094E1,8.320093E1,2.523359E4,1.8605432E4,3.1336313E2,1.4928041E3,3.029664E1,3.5860396E3,1.5502196E4,2.0728005E3,5.7724613E4,4.4984047E4,9.274206E3,1.6110735E2,7.8535693E3,1.001612E4,1.1448254E3,3.4675694E0,1.6502312E2,3.196738E2,5.1361086E4,8.264363E3,3.0855242E3,2.9003916E4,5.542967E3,7.6425894E3,5.4369102E1,9.921265E1,8.572633E2,1.7327222E0,4.7108246E1,1.5614618E3,5.6198353E1,4.6032028E2,7.454135E4,1.7427521E4,2.58117E3,4.270401E4,8.065869E4,2.0952438E4,2.1207544E5,2.2455339E5,4.7061133E3,1.0640743E2,1.2606101E4,8.564383E3,3.9629486E0,4.950344E0,1.8268268E2,9.922519E0,3.9730212E2,2.9688135E2,2.4689617E4,1.1692931E5,8.700324E0,1.7411015E0,4.8798485E1,4.3476074E1,7.6749504E1,6.451421E0,5.123358E2,1.8093096E4,9.2498764E1,2.2086436E2,9.1679083E2,5.760132E2,1.0477167E1,1.9819473E1,1.1122517E4,4.37968E3,3.1329523E2,1.7595054E3,2.2813674E4,3.4910938E4,5.662904E3,3.9321145E4,2.6557036E3,6.6185024E3,7.79915E3,5.4419556E1,6.557295E3,3.4588257E3,4.9183542E2,6.5299005E2,7.954466E1,8.5478455E1,3.1172635E2,7.947462E0,7.258033E3,4.4103055E4,1.581114E3,6.683249E3,2.3842417E3,7.012823E2,2.8141204E3,2.6189795E4,5.5397393E3,3.2275057E0,4.1575015E3,3.4850876E3,4.8877037E1,5.4920645E0,9.747267E1,1.7399733E0,5.1980896E0,4.1910156E1,5.0463104E2,1.0568308E3,2.9765193E0,5.3221832E1,6.942733E4,5.1140195E3,1.0446215E2,1.732306E4,2.6884252E4,1.5819761E4,5.417793E2,8.011691E4,1.0408269E3,1.991161E4,2.1161034E5,4.6509836E2,2.8964626E3,1.8096504E3,6.17706E1,4.463683E1,1.1972693E4,6.3340753E2,5.6627793E3,2.9016035E3,1.6334122E2,1.9341457E1],"tree_param":{"num_deleted":"0","num_feature":"10","num_nodes":"235","size_leaf_vector":"1"}},{"base_weights":[5.915665E-4,-1.1546774E0,7.662945E-1,-7.113638E-1,-1.6913648E0,1.5256349E0,-1.4674281E0,5.0119865E-1,-1.6825789E-1,-1.6192232E0,-1.7058073E0,9.7629595E-1,1.6176721E0,-1.6938702E0,1.6755298E0,-1.3087102E0,1.050031E0,-1.6403438E0,-1.0142553E0,-1.7078612E0,-1.3080178E0,1.6096815E0,-1.8721995E0,1.9512561E-1,1.6244792E0,-1.6985525E0,-1.2831675E0,1.6811395E0,-1.6308932E-1,1.1397015E0,-1.6752882E0,1.4598724E0,-1.7476642E0,-1.0179509E0,-1.6456099E0,4.8740864E-1,-1.4545311E0,-1.6829216E-1,-1.7424638E0,1.5643744E0,-1.7540435E-1,1.6139368E0,-1.6692682E-1,-1.9364433E0,-1.6443335E0,1.4844607E0,-4.3013746E-1,1.4313436E0,1.6638472E0,-1.8022739E0,-1.695157E0,1.4156832E0,-1.6959818E-1,-1.4996266E-1,1.6827029E-1,1.6603E0,-2.095055E-1,-1.683754E-1,-1.6530066E0,1.2454144E0,1.668408E0,-1.7816293E0,-1.7027022E0,7.1584955E-2,-1.5547388E0,-1.6024857E0,-1.6763458E0,-8.0236375E-1,1.303787E0,-1.5855374E0,-9.336732E-1,-1.7312686E0,-1.8809408E0,1.626474E0,-1.298031E-1,9.34933E-1,1.6276135E0,-1.6492407E0,-1.996096E0,-1.5221334E0,-1.6829398E-1,5.7445526E-1,1.6450698E0,-1.0364056E0,1.4505719E0,1.6392068E0,-1.8352977E0,1.5779997E0,1.6762824E0,-1.6824058E-1,-1.8548656E0,-1.7051828E0,-1.6835897E-1,-1.8246713E-1,1.6675932E0,1.67147E0,-1.5831356E-1,-1.5775462E0,1.2197723E0,-6.1203086E-1,-1.6838746E-1,1.6446754E0,-1.7137136E0,1.5553141E0,1.7420142E0,-1.8054173E0,-1.6816515E-1,-1.7383301E-1,-1.6831519E-1,-1.7396241E-1,1.2008407E0,-1.6908136E-1,-9.505789E-1,-1.6350503E0,-1.216452E0,-1.5652019E0,-1.6900321E0,1.108999E0,-1.6698834E-1,1.436248E0,-1.5345646E-1,-1.1255294E0,-1.6910806E-1,-1.5278971E0,-1.5929635E-1,-1.7497029E0,-1.6825213E-1,-1.9530582E0,-1.6817997E-1,6.001903E-1,1.6885954E0,1.5383062E0,2.6560012E-1,1.5369867E0,1.6772947E0,-1.7091886E0,-2.1631171E-1,-1.9736159E0,-2.2898428E-1,-9.381557E-1,-1.5834336E0,1.6722833E-1,-1.1376797E0,1.6516617E-1,-1.0909921E-1,-6.1723554E-1,-1.56958E0,1.7954047E-1,-7.749791E-1,1.6683742E0,1.5562186E0,-1.8802118E0,-1.1309824E0,1.6717893E0,-1.7103652E0,1.652242E0,1.6820883E0,-1.7640445E-1,-1.8705124E-1,-1.6826592E-1,-1.7561616E0,6.801623E-2,1.6747342E-1,1.6774681E-1,-1.4587384E-1,-1.638286E-1,-8.981174E-3,1.6390286E-1,-1.6635726E-1,-3.932179E-2,-1.6479854E-1,1.6619284E-1,-1.6759117E-1,-1.0246207E-1,-1.795404E-1,1.7495884E-1,-1.8088375E-1,1.6677497E-1,1.866718E-1,-1.7484088E-1,-1.83536E-1,-1.5689036E-1,1.637473E-1,1.2852757E-1,-1.6521311E-1,-1.5600996E-1,-1.7027816E-1,1.2964316E-1,-1.6963057E-1,-1.6881098E-1,-1.2756674E-1,-1.6803992E-1,-1.7208835E-1,-1.5203261E-1,1.75332E-1,1.5287721E-1,-1.5192994E-1,-1.6894336E-1,-1.3297881E-2,-5.71929E-2,-1.7498341E-1,6.906761E-2,-1.0953106E-1,-1.7656842E-1,-1.6754435E-1,-2.0176868E-1,-1.6582875E-1,1.1809486E-1,-1.2735352E-1,1.7003289E-1,7.6852806E-2,-7.0112504E-2,1.5941289E-1,2.0282856E-1,-5.2105384E-3,1.6910686E-1,-1.8780027E-1,1.6955228E-1,1.6178164E-1,-1.7289945E-1,-3.6024563E-3,9.274304E-2,-1.7931962E-1,-2.0180666E-1,-1.9329372E-1,-1.6723135E-1,5.65089E-2,-1.6838305E-1,-1.16051495E-1,-1.5413329E-1,1.4152052E-1,-1.0368526E-1,6.317421E-2,8.0767184E-2,-1.632327E-1,8.567583E-2,-1.6489674E-1,1.6474842E-1,1.7136014E-1,-2.1133593E-1,1.6903523E-1,-2.0072432E-1,-1.6065736E-1,3.932058E-2,-1.8334663E-1,1.4198427E-1,1.6743322E-1,-1.999409E-1,-1.4481518E-1,1.6762975E-1,-1.4846437E-1,1.6857752E-1,1.6781923E-1,-1.8138142E-1,-1.7361689E-1],"categories":[],"categories_nodes":[],"categories_segments":[],"categories_sizes":[],"default_left":[0,0,0,0,0,0,0,0,0,0,0,0,0,0,0,0,0,0,0,0,0,0,0,0,0,0,0,0,0,0,0,0,0,0,0,0,0,0,0,0,0,0,0,0,0,0,0,0,0,0,0,0,0,0,0,0,0,0,0,0,0,0,0,0,0,0,0,0,0,0,0,0,0,0,0,0,0,0,0,0,0,0,0,0,0,0,0,0,0,0,0,0,0,0,0,0,0,0,0,0,0,0,0,0,0,0,0,0,0,0,0,0,0,0,0,0,0,0,0,0,0,0,0,0,0,0,0,0,0,0,0,0,0,0,0,0,0,0,0,0,0,0,0,0,0,0,0,0,0,0,0,0,0,0,0,0,0,0,0,0,0,0,0,0,0,0,0,0,0,0,0,0,0,0,0,0,0,0,0,0,0,0,0,0,0,0,0,0,0,0,0,0,0,0,0,0,0,0,0,0,0,0,0,0,0,0,0,0,0,0,0,0,0,0,0,0,0,0,0,0,0,0,0,0,0,0,0,0,0,0,0,0,0,0,0,0,0,0,0,0,0,0,0,0,0,0,0,0,0,0,0,0,0,0,0],"id":2,"left_children":[1,3,5,7,9,11,13,15,-1,17,19,21,23,25,27,29,31,33,35,37,39,41,43,45,47,49,51,53,-1,55,57,59,61,63,65,67,69,-1,71,73,-1,75,-1,77,79,81,83,85,87,89,91,93,-1,-1,-1,95,97,-1,99,101,103,105,107,109,111,113,115,117,119,121,123,125,127,129,-1,131,133,135,137,139,-1,141,143,145,147,149,151,153,155,-1,157,159,-1,-1,161,163,-1,165,167,169,-1,171,173,175,177,179,-1,-1,-1,-1,181,-1,183,185,187,189,191,193,-1,195,-1,197,-1,199,201,203,-1,205,-1,207,209,211,213,215,217,219,221,223,-1,225,227,-1,229,-1,-1,231,233,-1,235,237,239,241,243,245,247,249,251,-1,-1,-1,253,-1,-1,-1,-1,-1,-1,-1,-1,-1,-1,-1,-1,-1,-1,-1,-1,-1,-1,-1,-1,-1,-1,-1,-1,-1,-1,-1,-1,-1,-1,-1,-1,-1,-1,-1,-1,-1,-1,-1,-1,-1,-1,-1,-1,-1,-1,-1,-1,-1,-1,-1,-1,-1,-1,-1,-1,-1,-1,-1,-1,-1,-1,-1,-1,-1,-1,-1,-1,-1,-1,-1,-1,-1,-1,-1,-1,-1,-1,-1,-1,-1,-1,-1,-1,-1,-1,-1,-1,-1,-1,-1,-1,-1,-1],"loss_changes":[1.5247379E6,1.6346338E5,1.7582485E6,4.4310666E5,3.21E2,3.911225E4,1.8717056E5,1.6622523E5,0E0,6.61E2,2.09375E2,2.0029875E5,6.415625E3,4.695E2,3.3057422E2,3.494908E4,1.4723088E5,1.625625E2,1.1591213E3,2.19375E2,1.7121384E3,1.2699531E3,2.9246094E2,2.545452E3,5.01175E3,8.2375E1,3.0878345E3,9.026953E1,0E0,3.5622612E3,3.609375E0,5.0066406E3,2.2023438E1,2.4753497E2,6.3171875E1,4.2010715E2,9.098804E1,0E0,1.6396875E2,3.4082886E1,0E0,8.408281E2,0E0,2.6651562E2,1.8424805E1,1.4975806E2,2.4262166E3,7.582617E4,5.82E2,4.5246094E1,2.4375E1,3.0339197E2,0E0,0E0,0E0,1.3521973E2,2.7643914E3,0E0,3.0035938E2,6.5241367E4,4.6995312E2,1.9140625E1,2.0097656E0,2.896413E2,2.1696594E1,2.5823047E2,4.1445312E1,2.5867636E2,9.397992E1,5.0597412E1,1.2619588E2,8.678125E1,1.1242383E2,1.0238464E1,0E0,7.238237E2,3.9771875E2,2.3277832E2,8.155469E1,3.711841E1,0E0,2.955384E2,1.7599121E1,3.5856592E2,3.995553E2,2.5153125E2,2.0921484E2,2.1383766E4,6.4125E1,0E0,4.265625E0,1.4146875E2,0E0,0E0,1.2719116E0,7.0924805E1,0E0,6.512305E1,8.3865466E2,6.0938866E1,0E0,2.7901875E3,3.677246E2,1.4639531E4,3.1534375E2,9.626953E0,0E0,0E0,0E0,0E0,1.08012794E2,0E0,8.744181E1,9.423828E1,1.9486865E3,1.1143506E2,4.7734375E0,8.559982E1,0E0,6.624014E1,0E0,1.1439902E2,0E0,3.1960419E1,9.656084E1,8.2953125E1,0E0,1.0921875E2,0E0,1.4153727E1,4.8379517E-1,1.1899072E2,4.7689243E2,1.657536E4,5.9515625E1,8.626514E1,2.0029558E2,1.8003906E1,0E0,1.16713165E2,3.9422607E1,0E0,6.568869E1,0E0,0E0,4.7354297E2,1.0684143E2,0E0,1.0167073E2,7.05625E1,1.3449852E4,2.1503516E2,4.3223438E2,4.078125E1,1.428457E2,7.0299375E3,2.75E0,0E0,0E0,0E0,4.1234375E1,0E0,0E0,0E0,0E0,0E0,0E0,0E0,0E0,0E0,0E0,0E0,0E0,0E0,0E0,0E0,0E0,0E0,0E0,0E0,0E0,0E0,0E0,0E0,0E0,0E0,0E0,0E0,0E0,0E0,0E0,0E0,0E0,0E0,0E0,0E0,0E0,0E0,0E0,0E0,0E0,0E0,0E0,0E0,0E0,0E0,0E0,0E0,0E0,0E0,0E0,0E0,0E0,0E0,0E0,0E0,0E0,0E0,0E0,0E0,0E0,0E0,0E0,0E0,0E0,0E0,0E0,0E0,0E0,0E0,0E0,0E0,0E0,0E0,0E0,0E0,0E0,0E0,0E0,0E0,0E0,0E0,0E0,0E0,0E0,0E0,0E0,0E0,0E0,0E0,0E0,0E0,0E0,0E0,0E0],"parents":[2147483647,0,0,1,1,2,2,3,3,4,4,5,5,6,6,7,7,9,9,10,10,11,11,12,12,13,13,14,14,15,15,16,16,17,17,18,18,19,19,20,20,21,21,22,22,23,23,24,24,25,25,26,26,27,27,29,29,30,30,31,31,32,32,33,33,34,34,35,35,36,36,38,38,39,39,41,41,43,43,44,44,45,45,46,46,47,47,48,48,49,49,50,50,51,51,55,55,56,56,58,58,59,59,60,60,61,61,62,62,63,63,64,64,65,65,66,66,67,67,68,68,69,69,70,70,71,71,72,72,73,73,75,75,76,76,77,77,78,78,79,79,81,81,82,82,83,83,84,84,85,85,86,86,87,87,88,88,90,90,91,91,94,94,95,95,97,97,98,98,99,99,101,101,102,102,103,103,104,104,105,105,110,110,112,112,113,113,114,114,115,115,116,116,117,117,119,119,121,121,123,123,124,124,125,125,127,127,129,129,130,130,131,131,132,132,133,133,134,134,135,135,136,136,137,137,139,139,140,140,142,142,145,145,146,146,148,148,149,149,150,150,151,151,152,152,153,153,154,154,155,155,156,156,160,160],"right_children":[2,4,6,8,10,12,14,16,-1,18,20,22,24,26,28,30,32,34,36,38,40,42,44,46,48,50,52,54,-1,56,58,60,62,64,66,68,70,-1,72,74,-1,76,-1,78,80,82,84,86,88,90,92,94,-1,-1,-1,96,98,-1,100,102,104,106,108,110,112,114,116,118,120,122,124,126,128,130,-1,132,134,136,138,140,-1,142,144,146,148,150,152,154,156,-1,158,160,-1,-1,162,164,-1,166,168,170,-1,172,174,176,178,180,-1,-1,-1,-1,182,-1,184,186,188,190,192,194,-1,196,-1,198,-1,200,202,204,-1,206,-1,208,210,212,214,216,218,220,222,224,-1,226,228,-1,230,-1,-1,232,234,-1,236,238,240,242,244,246,248,250,252,-1,-1,-1,254,-1,-1,-1,-1,-1,-1,-1,-1,-1,-1,-1,-1,-1,-1,-1,-1,-1,-1,-1,-1,-1,-1,-1,-1,-1,-1,-1,-1,-1,-1,-1,-1,-1,-1,-1,-1,-1,-1,-1,-1,-1,-1,-1,-1,-1,-1,-1,-1,-1,-1,-1,-1,-1,-1,-1,-1,-1,-1,-1,-1,-1,-1,-1,-1,-1,-1,-1,-1,-1,-1,-1,-1,-1,-1,-1,-1,-1,-1,-1,-1,-1,-1,-1,-1,-1,-1,-1,-1,-1,-1,-1,-1,-1,-1],"split_conditions":[-2.8865558E-1,-2.4602948E-1,-2.783059E-1,1.4995328E0,-8.3766496E-1,-2.6820746E-1,6.7068857E-1,-3.0598512E-1,-1.6825789E-1,-1.3763179E0,-2.8886276E-1,-1.8437314E-1,-1.5558689E0,2.691214E0,-5.2050874E-2,-2.9757717E-1,-2.783059E-1,-1.6423193E0,-1.0770663E0,-3.0587584E-1,-2.4442409E-1,1.4995328E0,2.691214E0,-3.0193245E-1,-2.3382854E-1,-2.6522654E-1,-3.36048E-1,2.691214E0,-1.6308932E-1,-3.36048E-1,1.8775938E-2,-2.990783E-1,-2.6766545E-1,-2.871568E-1,-1.6324863E-1,-3.0587584E-1,-3.000519E-1,-1.6829216E-1,1.0176953E0,-2.783059E-1,-1.7540435E-1,-1.396268E0,-1.6692682E-1,-8.3766496E-1,-6.71414E-1,2.691214E0,-1.2313767E-1,-8.226838E-2,-1.9814965E-1,-3.2373834E-1,-2.4684286E-2,4.7690296E-3,-1.6959818E-1,-1.4996266E-1,1.6827029E-1,-2.783059E-1,-3.063211E-1,-1.683754E-1,2.930104E-2,-2.7682662E-1,-2.9551807E-1,1.2959912E1,-2.7953884E-1,-3.0679256E-1,2.1525266E0,9.818005E-2,-2.0554444E-1,-2.255075E-1,-2.783059E-1,-2.4219653E-1,-1.0571162E0,-2.783059E-1,-2.783059E-1,-1.1281093E-1,-1.298031E-1,-3.1646463E-1,-2.8199863E-1,1.9104636E0,1.0974958E0,-1.2428416E-1,-1.6829398E-1,-1.6841528E-1,-3.1031466E-1,6.655966E-2,2.691214E0,-1.1955931E-1,1.8024304E0,2.491178E-2,-1.3195202E-1,-1.6824058E-1,-1.396268E0,-3.2373834E-1,-1.6835897E-1,-1.8246713E-1,-8.3766496E-1,1.2959912E1,-1.5831356E-1,2.1947517E0,1.2959912E1,-2.5765353E-1,-1.6838746E-1,1.2959912E1,-1.4494683E0,-2.657592E-1,-3.2011858E-1,-3.008261E-1,-1.6816515E-1,-1.7383301E-1,-1.6831519E-1,-1.7396241E-1,-3.0561316E-1,-1.6908136E-1,2.2943075E0,-3.050152E-1,-3.063211E-1,-3.0487332E-1,-3.0392823E-1,-1.7441389E-1,-1.6698834E-1,3.142468E-1,-1.5345646E-1,-1.3829009E-1,-1.6910806E-1,-2.9935908E-1,-1.8048438E-1,2.691214E0,-1.6825213E-1,2.691214E0,-1.6817997E-1,-3.2250255E-1,2.6868546E0,-2.8653026E-1,-2.3626992E-1,-2.2563155E-1,-1.9408508E-1,-1.0571162E0,2.2943075E0,-8.226838E-2,-2.2898428E-1,2.9172456E-1,9.910806E-1,1.6722833E-1,-1.5843879E-1,1.6516617E-1,-1.0909921E-1,-2.286839E-1,-1.6423193E0,1.7954047E-1,4.6722822E-2,-2.539073E-1,-2.4698023E-1,2.691214E0,2.028474E0,-1.396268E0,5.8402073E-2,2.3243466E-1,2.691214E0,-1.7640445E-1,-1.8705124E-1,-1.6826592E-1,-2.3721445E-1,6.801623E-2,1.6747342E-1,1.6774681E-1,-1.4587384E-1,-1.638286E-1,-8.981174E-3,1.6390286E-1,-1.6635726E-1,-3.932179E-2,-1.6479854E-1,1.6619284E-1,-1.6759117E-1,-1.0246207E-1,-1.795404E-1,1.7495884E-1,-1.8088375E-1,1.6677497E-1,1.866718E-1,-1.7484088E-1,-1.83536E-1,-1.5689036E-1,1.637473E-1,1.2852757E-1,-1.6521311E-1,-1.5600996E-1,-1.7027816E-1,1.2964316E-1,-1.6963057E-1,-1.6881098E-1,-1.2756674E-1,-1.6803992E-1,-1.7208835E-1,-1.5203261E-1,1.75332E-1,1.5287721E-1,-1.5192994E-1,-1.6894336E-1,-1.3297881E-2,-5.71929E-2,-1.7498341E-1,6.906761E-2,-1.0953106E-1,-1.7656842E-1,-1.6754435E-1,-2.0176868E-1,-1.6582875E-1,1.1809486E-1,-1.2735352E-1,1.7003289E-1,7.6852806E-2,-7.0112504E-2,1.5941289E-1,2.0282856E-1,-5.2105384E-3,1.6910686E-1,-1.8780027E-1,1.6955228E-1,1.6178164E-1,-1.7289945E-1,-3.6024563E-3,9.274304E-2,-1.7931962E-1,-2.0180666E-1,-1.9329372E-1,-1.6723135E-1,5.65089E-2,-1.6838305E-1,-1.16051495E-1,-1.5413329E-1,1.4152052E-1,-1.0368526E-1,6.317421E-2,8.0767184E-2,-1.632327E-1,8.567583E-2,-1.6489674E-1,1.6474842E-1,1.7136014E-1,-2.1133593E-1,1.6903523E-1,-2.0072432E-1,-1.6065736E-1,3.932058E-2,-1.8334663E-1,1.4198427E-1,1.6743322E-1,-1.999409E-1,-1.4481518E-1,1.6762975E-1,-1.4846437E-1,1.6857752E-1,1.6781923E-1,-1.8138142E-1,-1.7361689E-1],"split_indices":[2,1,3,8,0,2,1,2,0,0,2,1,0,9,5,1,3,0,0,2,1,8,9,5,2,3,5,9,0,5,5,2,3,5,5,2,2,0,0,3,0,0,0,0,0,9,2,1,2,5,3,1,0,0,0,3,2,0,5,1,2,7,1,5,5,1,1,5,3,5,0,3,3,0,0,5,2,5,0,1,0,1,5,1,9,1,5,1,2,0,0,5,0,0,0,7,0,0,7,1,0,7,0,1,5,2,0,0,0,0,2,0,5,2,2,2,2,1,0,5,0,1,0,2,1,9,0,9,0,5,0,2,1,1,1,0,5,1,0,5,1,0,2,0,0,2,0,0,5,2,2,9,5,0,5,1,9,0,0,0,3,0,0,0,0,0,0,0,0,0,0,0,0,0,0,0,0,0,0,0,0,0,0,0,0,0,0,0,0,0,0,0,0,0,0,0,0,0,0,0,0,0,0,0,0,0,0,0,0,0,0,0,0,0,0,0,0,0,0,0,0,0,0,0,0,0,0,0,0,0,0,0,0,0,0,0,0,0,0,0,0,0,0,0,0,0,0,0,0,0,0,0,0,0,0],"split_type":[0,0,0,0,0,0,0,0,0,0,0,0,0,0,0,0,0,0,0,0,0,0,0,0,0,0,0,0,0,0,0,0,0,0,0,0,0,0,0,0,0,0,0,0,0,0,0,0,0,0,0,0,0,0,0,0,0,0,0,0,0,0,0,0,0,0,0,0,0,0,0,0,0,0,0,0,0,0,0,0,0,0,0,0,0,0,0,0,0,0,0,0,0,0,0,0,0,0,0,0,0,0,0,0,0,0,0,0,0,0,0,0,0,0,0,0,0,0,0,0,0,0,0,0,0,0,0,0,0,0,0,0,0,0,0,0,0,0,0,0,0,0,0,0,0,0,0,0,0,0,0,0,0,0,0,0,0,0,0,0,0,0,0,0,0,0,0,0,0,0,0,0,0,0,0,0,0,0,0,0,0,0,0,0,0,0,0,0,0,0,0,0,0,0,0,0,0,0,0,0,0,0,0,0,0,0,0,0,0,0,0,0,0,0,0,0,0,0,0,0,0,0,0,0,0,0,0,0,0,0,0,0,0,0,0,0,0,0,0,0,0,0,0,0,0,0,0,0,0,0,0,0,0,0,0],"sum_hessian":[1.7236588E6,6.870533E5,1.03660544E6,3.7625888E5,3.1079444E5,7.7361875E5,2.629867E5,1.673379E5,2.0892095E5,5.1860703E4,2.5893375E5,1.1101564E5,6.626031E5,2.4531298E5,1.7673705E4,3.8935895E4,1.28402016E5,5.0109574E4,1.7511268E3,2.5760048E5,1.3332546E3,9.082125E4,2.0194389E4,3.1556567E3,6.594475E5,2.4254461E5,2.7683806E3,1.7644262E4,2.9443798E1,5.070096E3,3.38658E4,1.1199593E5,1.6406086E4,4.220552E2,4.968752E4,3.969905E2,1.3541364E3,1.4973225E5,1.0786824E5,1.788646E2,1.1543901E3,9.070405E4,1.1720596E2,1.5747182E4,4.447207E3,1.0301151E3,2.1255417E3,1.1166552E5,5.4778194E5,7.671509E3,2.348731E5,3.6694965E2,2.4014312E3,8.197457E0,1.7636064E4,3.6582937E3,1.4118024E3,2.4487295E4,9.378505E3,5.521737E4,5.677856E4,9.323974E3,7.0821123E3,1.3959047E2,2.8246472E2,2.0698967E4,2.8988553E4,1.5388664E2,2.4310385E2,1.08036E3,2.7377643E2,9.981234E4,8.0558965E3,1.7548915E2,3.3754401E0,1.7922865E3,8.891176E4,2.713152E3,1.3034029E4,1.0773862E3,3.3698206E3,1.5522006E2,8.7489496E2,1.6077229E3,5.178189E2,1.0498557E5,6.6799536E3,6.9324266E4,4.784577E5,2.3494917E3,5.322017E3,1.2574367E5,1.0912943E5,2.601909E1,3.4093054E2,3.6462212E3,1.2072518E1,7.213013E2,6.9050104E2,2.7069055E2,9.107814E3,4.865326E4,6.564108E3,2.2393559E4,3.4385E4,7.5181133E3,1.8058606E3,2.4781165E3,4.6039956E3,5.340073E1,8.6189735E1,2.2907224E2,5.3392494E1,1.9085719E4,1.6132482E3,3.190928E3,2.5797625E4,4.7953884E1,1.05932755E2,2.3273643E2,1.0367424E1,2.0379356E2,8.765664E2,1.5435663E2,1.1941981E2,7.2398945E4,2.7413396E4,5.90767E3,2.1482266E3,1.0624665E1,1.6486449E2,9.419042E2,8.5038226E2,3.1493791E4,5.741797E4,2.6040178E3,1.0913424E2,1.2114627E4,9.194026E2,1.0389869E2,9.7348755E2,9.4591125E1,6.062894E1,8.731876E2,1.7073677E0,9.012989E2,7.0642395E2,4.4851767E2,6.930125E1,7.76686E4,2.7316969E4,6.2779404E3,4.0201328E2,6.740233E4,1.9219329E3,9.312774E4,3.8532994E5,7.988525E2,4.5231646E3,8.723522E4,3.850845E4,3.1388652E0,3.377917E2,3.639711E3,6.5101824E0,6.929107E2,2.8390587E1,6.032206E2,8.728045E1,2.246251E2,4.6065453E1,4.8402273E4,2.5098854E2,6.971223E2,5.866986E3,2.1171424E4,1.2221354E3,2.155988E4,1.2825118E4,2.6093987E3,4.908715E3,1.1383862E1,7.480587E1,1.2553214E1,4.083928E1,9.07141E3,1.0014309E4,2.5839438E2,1.3548538E3,2.2366406E3,9.542873E2,1.9701518E4,6.0961074E3,9.170717E0,3.8783165E1,2.261398E2,6.596622E0,1.2951134E2,7.428223E1,2.9757326E1,1.24599304E2,6.2723858E1,5.669595E1,5.955874E4,1.2840209E4,4.8405347E3,1.0671353E3,8.393001E0,2.2316654E0,1.6195113E2,2.9133694E0,2.2626802E1,9.192774E2,1.2904332E2,7.21339E2,3.0134643E4,1.3591488E3,4.3928023E4,1.3489946E4,2.5735205E3,3.0497135E1,6.3493294E1,4.5640945E1,5.7656904E3,6.3489365E3,6.97309E1,3.416779E1,7.8431665E2,1.891709E2,5.2693474E1,7.9354663E0,6.7476794E2,2.2653094E2,1.7861107E1,6.8856287E2,2.4178907E1,4.5122337E1,5.3154312E4,2.451429E4,9.6278143E2,2.6354188E4,4.283208E3,1.9947323E3,1.2696847E2,2.750448E2,6.790782E2,6.672325E4,9.110432E2,1.01088965E3,9.241948E4,7.082612E2,1.977564E5,1.8757353E5,9.892322E3,2.8616127E4],"tree_param":{"num_deleted":"0","num_feature":"10","num_nodes":"255","size_leaf_vector":"1"}},{"base_weights":[3.3910965E-4,-1.0714544E0,7.1979094E-1,-6.5817815E-1,-1.581964E0,1.4289391E0,-1.3734044E0,4.5313433E-1,-1.576868E-1,-1.5121945E0,-1.595981E0,9.1744846E-1,1.5131239E0,-1.5846391E0,1.5705745E0,-1.236361E0,9.6061265E-1,-1.5317025E0,-9.4966626E-1,-1.5767917E-1,-1.6219211E0,1.5036633E0,-1.7117097E0,1.6776066E-1,1.519613E0,-1.5890037E0,-1.2056547E0,-1.5019271E-1,1.5740564E0,1.0601946E0,-1.5710036E-1,1.3391386E0,-1.6282804E0,-8.925282E-1,-1.5373727E0,4.084667E-1,-1.3544745E0,-1.5769605E-1,-1.653494E0,1.5073223E0,-1.5632088E-1,-1.4812834E0,-1.7587116E0,-3.6448616E-1,1.4439089E0,1.3327421E0,1.55804E0,-1.5767185E-1,-1.6798112E0,-1.5898602E-1,1.422443E-1,7.0874316E-1,1.5760022E-1,1.0154677E-1,1.4740353E0,1.1302204E0,1.5348846E0,-1.575829E-1,-1.7128386E0,-1.539833E-1,-5.6715474E-2,-1.5163956E0,-1.5794626E0,-1.6136013E-1,8.5577077E-1,-1.4790533E0,-8.6515754E-1,-1.6554222E0,1.7572328E-1,9.351448E-1,1.5193535E0,-1.5628827E0,1.4525065E-1,-1.8112507E0,-1.5678126E0,5.184341E-1,-8.7924594E-1,1.0084215E0,1.5712429E0,1.5283031E0,-1.6714007E0,1.4747534E0,1.5701859E0,-1.611673E0,-1.6949952E0,9.669285E-1,-1.3407403E0,1.429131E-1,-2.5233838E-1,1.1789546E0,-1.593905E-1,1.5541518E0,-1.5604414E-1,1.515227E0,-1.5653408E0,1.4270598E0,1.6016114E0,-1.7046087E0,-1.846743E-1,1.4823564E0,-1.3094618E0,-1.4939306E0,-1.5844405E-1,-1.4630988E0,-1.5968134E0,-3.0790707E-1,1.560547E0,-1.5744086E-1,-1.3426453E0,-1.4097675E0,-2.0234866E-1,-1.6404276E0,-1.8352247E0,1.2106768E0,-1.283218E-2,1.4624035E0,1.580437E0,-1.6546589E0,-1.432804E0,1.1450629E0,-3.6481774E-1,-1.7944623E0,-2.0287926E-1,-1.5778935E-1,1.7280723E-1,-7.719237E-2,1.3632711E0,7.0081425E-1,-1.071944E0,1.4690467E0,-1.1264106E0,1.4727635E0,1.6714792E-1,1.153708E0,1.5339475E0,-6.167166E-1,-1.6940364E0,1.5620145E0,-1.5519773E0,1.5459416E0,1.5760213E0,-1.6245916E0,-1.0485691E0,-1.682995E0,-1.791387E-1,-1.866763E-1,1.5016314E0,-1.5813138E-1,1.4451599E-1,-1.4508335E-1,1.3958302E-1,-1.5376091E-1,1.2767653E-1,1.5851928E-1,-1.6982934E-1,1.531163E-1,-1.5708117E-1,-8.948031E-2,-1.6460761E-1,1.6201988E-1,-1.663513E-1,8.4505364E-2,1.6060762E-1,-1.6446836E-1,-1.7145446E-1,1.676595E-1,-1.3670224E-1,-7.868575E-2,-1.642014E-1,-1.578323E-1,-1.4622371E-1,-1.5649384E-1,-1.1155345E-1,-1.6009873E-1,-1.417195E-1,-1.5082645E-1,-5.702197E-3,-1.1381779E-1,1.586864E-1,-1.5693468E-1,-1.22247234E-1,-4.89805E-2,-1.6339701E-1,-1.6050835E-1,4.1700896E-2,-1.5998262E-1,-1.6503587E-1,-1.5586899E-1,-1.8573354E-1,-6.1245263E-2,1.2978597E-1,-1.4257406E-1,1.2333304E-1,1.5611663E-1,-1.8656923E-1,1.6004068E-1,1.538305E-1,-1.6430639E-1,-1.9788972E-1,-6.476062E-3,-1.4458494E-1,-1.2339779E-1,1.3375753E-1,-1.9218944E-1,5.628276E-2,-1.8244652E-1,-1.7667216E-1,1.2541632E-1,-6.940233E-2,-1.2725294E-1,1.3941477E-1,1.18250154E-1,-5.60822E-2,-1.354165E-1,-2.526479E-2,1.0586492E-1,1.5990308E-1,-1.572159E-1,1.4945243E-1,1.2810028E-1,1.5582371E-1,1.4027427E-1,-4.7609713E-3,1.5591173E-1,1.463263E-1,-1.6998312E-1,1.6711801E-1,-1.8320869E-1,-1.5887019E-1,1.3152505E-1,1.5644863E-1,-1.5962937E-1,-1.01713434E-1,1.5686797E-1,-1.3557328E-1,1.5724766E-1,1.579346E-1,-1.5691207E-1,-1.6509365E-1,-1.7471838E-1,-6.2671117E-3,-1.7063248E-1,-1.6530791E-1,-1.3304302E-1,1.1404993E-1,-1.0235178E-1,1.523564E-1],"categories":[],"categories_nodes":[],"categories_segments":[],"categories_sizes":[],"default_left":[0,0,0,0,0,0,0,0,0,0,0,0,0,0,0,0,0,0,0,0,0,0,0,0,0,0,0,0,0,0,0,0,0,0,0,0,0,0,0,0,0,0,0,0,0,0,0,0,0,0,0,0,0,0,0,0,0,0,0,0,0,0,0,0,0,0,0,0,0,0,0,0,0,0,0,0,0,0,0,0,0,0,0,0,0,0,0,0,0,0,0,0,0,0,0,0,0,0,0,0,0,0,0,0,0,0,0,0,0,0,0,0,0,0,0,0,0,0,0,0,0,0,0,0,0,0,0,0,0,0,0,0,0,0,0,0,0,0,0,0,0,0,0,0,0,0,0,0,0,0,0,0,0,0,0,0,0,0,0,0,0,0,0,0,0,0,0,0,0,0,0,0,0,0,0,0,0,0,0,0,0,0,0,0,0,0,0,0,0,0,0,0,0,0,0,0,0,0,0,0,0,0,0,0,0,0,0,0,0,0,0,0,0,0,0,0,0,0,0,0,0,0,0,0,0,0,0,0,0,0,0,0,0,0,0,0,0,0,0,0,0,0,0,0,0,0,0],"id":3,"left_children":[1,3,5,7,9,11,13,15,-1,17,19,21,23,25,27,29,31,33,35,-1,37,39,41,43,45,47,49,-1,51,53,-1,55,57,59,61,63,65,-1,67,69,-1,71,73,75,77,79,81,-1,83,-1,85,87,-1,89,91,93,95,-1,97,-1,99,101,103,-1,105,107,109,111,-1,113,115,117,119,121,123,125,127,129,131,133,135,137,139,141,143,145,147,-1,149,151,-1,153,-1,155,157,159,161,163,-1,165,167,169,-1,171,173,175,177,-1,179,181,183,185,187,189,191,193,195,197,199,201,203,205,-1,-1,-1,207,209,211,213,215,217,219,-1,221,223,225,227,229,231,233,235,237,239,241,-1,243,245,-1,-1,-1,-1,-1,-1,-1,-1,-1,-1,-1,-1,-1,-1,-1,-1,-1,-1,-1,-1,-1,-1,-1,-1,-1,-1,-1,-1,-1,-1,-1,-1,-1,-1,-1,-1,-1,-1,-1,-1,-1,-1,-1,-1,-1,-1,-1,-1,-1,-1,-1,-1,-1,-1,-1,-1,-1,-1,-1,-1,-1,-1,-1,-1,-1,-1,-1,-1,-1,-1,-1,-1,-1,-1,-1,-1,-1,-1,-1,-1,-1,-1,-1,-1,-1,-1,-1,-1,-1,-1,-1,-1,-1,-1,-1,-1,-1,-1,-1,-1],"loss_changes":[1.2833332E6,1.4103094E5,1.478189E6,3.7714962E5,2.9E2,3.20275E4,1.5671334E5,1.4333764E5,0E0,5.477578E2,1.21375E2,1.6202647E5,5.576E3,3.87E2,1.8285547E2,2.9679898E4,1.25989266E5,1.739375E2,9.242374E2,0E0,1.47625E2,9.669844E2,2.0497656E2,2.083742E3,4.562375E3,2.566875E2,1.3887263E3,0E0,2.7261719E1,1.9485835E3,0E0,4.5851875E3,7.003516E1,2.3131052E2,3.99375E1,3.5100885E2,7.76333E1,0E0,4.1170312E2,5.89625E2,0E0,4.3204688E2,1.5677344E2,9.8449896E2,4.8483276E1,6.3699516E4,5.30875E2,0E0,2.590625E1,0E0,7.297613E2,2.7798594E1,0E0,2.7093577E3,8.365034E2,5.631418E4,4.143125E2,0E0,3.7578125E0,0E0,3.6385532E2,4.6578125E1,2.9816406E1,0E0,2.606141E2,1.12890625E1,9.541254E1,1.6446875E2,0E0,4.6253137E2,2.9021875E2,3.4614746E1,8.01461E1,4.1910156E1,1.1708984E2,4.0168726E2,4.1730444E2,2.0527316E2,4.41687E0,2.1345312E2,1.5716602E2,1.772886E4,6.2625E1,3.5146484E1,2.3148438E1,2.3675015E2,1.4522916E2,0E0,3.7242268E1,2.4291968E2,0E0,3.402085E2,0E0,2.3373984E3,3.6567188E2,1.3221094E4,1.19453125E2,7.050781E-1,0E0,4.9168625E1,1.6784302E1,6.2125E1,0E0,7.180762E1,8.109375E0,3.6195724E1,1.5847809E1,0E0,9.816467E0,2.9182251E1,1.0557349E2,2.05E1,2.6291992E1,2.1886646E2,7.0561926E2,1.4310727E4,3.1648438E1,3.5541992E0,2.2912354E1,2.5949883E1,1.5170898E2,6.4179688E0,0E0,0E0,0E0,3.860254E2,2.8634583E1,9.14053E1,2.8170044E2,7.415863E0,4.5943295E1,3.902954E0,0E0,4.5333508E2,1.7614062E2,3.517858E2,9.142578E1,3.7734375E1,4.296631E1,5.8947188E3,2E0,4.642578E0,8.007864E1,1.1234375E1,0E0,1.8716864E2,1.6072876E1,0E0,0E0,0E0,0E0,0E0,0E0,0E0,0E0,0E0,0E0,0E0,0E0,0E0,0E0,0E0,0E0,0E0,0E0,0E0,0E0,0E0,0E0,0E0,0E0,0E0,0E0,0E0,0E0,0E0,0E0,0E0,0E0,0E0,0E0,0E0,0E0,0E0,0E0,0E0,0E0,0E0,0E0,0E0,0E0,0E0,0E0,0E0,0E0,0E0,0E0,0E0,0E0,0E0,0E0,0E0,0E0,0E0,0E0,0E0,0E0,0E0,0E0,0E0,0E0,0E0,0E0,0E0,0E0,0E0,0E0,0E0,0E0,0E0,0E0,0E0,0E0,0E0,0E0,0E0,0E0,0E0,0E0,0E0,0E0,0E0,0E0,0E0,0E0,0E0,0E0,0E0,0E0,0E0,0E0,0E0,0E0,0E0,0E0,0E0,0E0],"parents":[2147483647,0,0,1,1,2,2,3,3,4,4,5,5,6,6,7,7,9,9,10,10,11,11,12,12,13,13,14,14,15,15,16,16,17,17,18,18,20,20,21,21,22,22,23,23,24,24,25,25,26,26,28,28,29,29,31,31,32,32,33,33,34,34,35,35,36,36,38,38,39,39,41,41,42,42,43,43,44,44,45,45,46,46,48,48,50,50,51,51,53,53,54,54,55,55,56,56,58,58,60,60,61,61,62,62,64,64,65,65,66,66,67,67,69,69,70,70,71,71,72,72,73,73,74,74,75,75,76,76,77,77,78,78,79,79,80,80,81,81,82,82,83,83,84,84,85,85,86,86,88,88,89,89,91,91,93,93,94,94,95,95,96,96,97,97,99,99,100,100,101,101,103,103,104,104,105,105,106,106,108,108,109,109,110,110,111,111,112,112,113,113,114,114,115,115,116,116,117,117,118,118,119,119,120,120,121,121,125,125,126,126,127,127,128,128,129,129,130,130,131,131,133,133,134,134,135,135,136,136,137,137,138,138,139,139,140,140,141,141,142,142,143,143,145,145,146,146],"right_children":[2,4,6,8,10,12,14,16,-1,18,20,22,24,26,28,30,32,34,36,-1,38,40,42,44,46,48,50,-1,52,54,-1,56,58,60,62,64,66,-1,68,70,-1,72,74,76,78,80,82,-1,84,-1,86,88,-1,90,92,94,96,-1,98,-1,100,102,104,-1,106,108,110,112,-1,114,116,118,120,122,124,126,128,130,132,134,136,138,140,142,144,146,148,-1,150,152,-1,154,-1,156,158,160,162,164,-1,166,168,170,-1,172,174,176,178,-1,180,182,184,186,188,190,192,194,196,198,200,202,204,206,-1,-1,-1,208,210,212,214,216,218,220,-1,222,224,226,228,230,232,234,236,238,240,242,-1,244,246,-1,-1,-1,-1,-1,-1,-1,-1,-1,-1,-1,-1,-1,-1,-1,-1,-1,-1,-1,-1,-1,-1,-1,-1,-1,-1,-1,-1,-1,-1,-1,-1,-1,-1,-1,-1,-1,-1,-1,-1,-1,-1,-1,-1,-1,-1,-1,-1,-1,-1,-1,-1,-1,-1,-1,-1,-1,-1,-1,-1,-1,-1,-1,-1,-1,-1,-1,-1,-1,-1,-1,-1,-1,-1,-1,-1,-1,-1,-1,-1,-1,-1,-1,-1,-1,-1,-1,-1,-1,-1,-1,-1,-1,-1,-1,-1,-1,-1,-1,-1],"split_conditions":[-2.882843E-1,-2.4442409E-1,-2.783059E-1,1.4995328E0,-8.3766496E-1,-2.6820746E-1,6.7068857E-1,-3.0598512E-1,-1.576868E-1,-1.3763179E0,-3.0587584E-1,-1.8437314E-1,-1.5558689E0,2.691214E0,2.691214E0,-2.9757717E-1,-2.783059E-1,-1.6423193E0,-1.0770663E0,-1.5767917E-1,1.318317E0,1.4995328E0,-8.3766496E-1,-1.2313767E-1,-2.3382854E-1,1.318317E0,5.3306095E-2,-1.5019271E-1,-1.6024191E0,-3.063211E-1,-1.5710036E-1,-2.990783E-1,1.318317E0,-3.056838E-1,-3.033064E-1,1.318317E0,-3.000519E-1,-1.5769605E-1,2.691214E0,-1.396268E0,-1.5632088E-1,-1.3763179E0,2.691214E0,-6.089778E-2,1.909887E-3,-8.226838E-2,-1.9814965E-1,-1.5767185E-1,-8.3766496E-1,-1.5898602E-1,-1.2313767E-1,7.5709265E-1,1.5760022E-1,-2.9852188E-1,1.2959912E1,-2.7682662E-1,-2.9551807E-1,-1.575829E-1,1.6494488E0,-1.539833E-1,-3.046873E-1,-1.4361682E0,-2.0908815E-1,-1.6136013E-1,-3.0561316E-1,-1.0571162E0,-1.0571162E0,1.0176953E0,1.7572328E-1,-2.0365353E-1,-2.7849114E-1,4.7690296E-3,-1.0770663E0,1.0974958E0,1.318317E0,2.691214E0,-1.6356694E0,5.893141E-1,1.318317E0,-1.3763179E0,-7.937914E-2,2.491178E-2,-1.3195202E-1,-1.3763179E0,-7.937914E-2,-2.3150824E-1,2.6260977E0,1.429131E-1,2.842821E0,1.318317E0,-1.593905E-1,-2.783059E-1,-1.5604414E-1,1.2959912E1,-1.4494683E0,-2.657592E-1,-1.5558689E0,-1.396268E0,-1.846743E-1,-1.1709088E-1,-3.012542E-1,1.318317E0,-1.5844405E-1,-2.1652398E-1,9.910806E-1,-1.7041108E-1,-2.3117884E-1,-1.5744086E-1,1.318317E0,-2.9935908E-1,1.318317E0,-1.9790795E-1,-2.291845E-1,-2.8725222E-1,-2.7449584E-1,-2.1493003E-1,-1.9408508E-1,-1.396268E0,-1.6423193E0,1.318317E0,-1.0571162E0,-8.226838E-2,-2.0287926E-1,-1.5778935E-1,1.7280723E-1,-1.5356715E-1,-2.6602614E-1,1.506718E-1,-2.0479085E-1,-1.5957692E0,1.318317E0,2.9345247E-1,1.6714792E-1,-1.2664983E-1,-1.1955931E-1,-2.3611769E-1,3.0277718E-2,-1.396268E0,9.910952E-1,2.3243466E-1,1.318317E0,-2.4121638E-1,-2.0362025E-1,-2.3611769E-1,-1.791387E-1,8.4479433E-1,-7.8446466E-1,-1.5813138E-1,1.4451599E-1,-1.4508335E-1,1.3958302E-1,-1.5376091E-1,1.2767653E-1,1.5851928E-1,-1.6982934E-1,1.531163E-1,-1.5708117E-1,-8.948031E-2,-1.6460761E-1,1.6201988E-1,-1.663513E-1,8.4505364E-2,1.6060762E-1,-1.6446836E-1,-1.7145446E-1,1.676595E-1,-1.3670224E-1,-7.868575E-2,-1.642014E-1,-1.578323E-1,-1.4622371E-1,-1.5649384E-1,-1.1155345E-1,-1.6009873E-1,-1.417195E-1,-1.5082645E-1,-5.702197E-3,-1.1381779E-1,1.586864E-1,-1.5693468E-1,-1.22247234E-1,-4.89805E-2,-1.6339701E-1,-1.6050835E-1,4.1700896E-2,-1.5998262E-1,-1.6503587E-1,-1.5586899E-1,-1.8573354E-1,-6.1245263E-2,1.2978597E-1,-1.4257406E-1,1.2333304E-1,1.5611663E-1,-1.8656923E-1,1.6004068E-1,1.538305E-1,-1.6430639E-1,-1.9788972E-1,-6.476062E-3,-1.4458494E-1,-1.2339779E-1,1.3375753E-1,-1.9218944E-1,5.628276E-2,-1.8244652E-1,-1.7667216E-1,1.2541632E-1,-6.940233E-2,-1.2725294E-1,1.3941477E-1,1.18250154E-1,-5.60822E-2,-1.354165E-1,-2.526479E-2,1.0586492E-1,1.5990308E-1,-1.572159E-1,1.4945243E-1,1.2810028E-1,1.5582371E-1,1.4027427E-1,-4.7609713E-3,1.5591173E-1,1.463263E-1,-1.6998312E-1,1.6711801E-1,-1.8320869E-1,-1.5887019E-1,1.3152505E-1,1.5644863E-1,-1.5962937E-1,-1.01713434E-1,1.5686797E-1,-1.3557328E-1,1.5724766E-1,1.579346E-1,-1.5691207E-1,-1.6509365E-1,-1.7471838E-1,-6.2671117E-3,-1.7063248E-1,-1.6530791E-1,-1.3304302E-1,1.1404993E-1,-1.0235178E-1,1.523564E-1],"split_indices":[2,1,3,8,0,2,1,2,0,0,2,1,0,9,9,1,3,0,0,0,6,8,0,2,2,6,1,0,0,2,0,2,6,2,2,6,2,0,9,0,0,0,9,1,2,1,2,0,0,0,2,1,0,1,7,1,2,0,0,0,2,0,1,0,2,0,0,0,0,1,2,1,0,0,6,9,0,1,6,0,1,1,2,0,1,3,2,0,1,6,0,3,0,7,0,1,0,0,0,1,2,6,0,1,1,1,1,0,6,2,6,1,1,2,2,1,1,0,0,6,0,1,0,0,0,1,2,1,2,0,6,2,0,1,1,2,1,0,0,1,6,1,3,2,0,0,0,0,0,0,0,0,0,0,0,0,0,0,0,0,0,0,0,0,0,0,0,0,0,0,0,0,0,0,0,0,0,0,0,0,0,0,0,0,0,0,0,0,0,0,0,0,0,0,0,0,0,0,0,0,0,0,0,0,0,0,0,0,0,0,0,0,0,0,0,0,0,0,0,0,0,0,0,0,0,0,0,0,0,0,0,0,0,0,0,0,0,0,0,0,0,0,0,0,0,0,0],"split_type":[0,0,0,0,0,0,0,0,0,0,0,0,0,0,0,0,0,0,0,0,0,0,0,0,0,0,0,0,0,0,0,0,0,0,0,0,0,0,0,0,0,0,0,0,0,0,0,0,0,0,0,0,0,0,0,0,0,0,0,0,0,0,0,0,0,0,0,0,0,0,0,0,0,0,0,0,0,0,0,0,0,0,0,0,0,0,0,0,0,0,0,0,0,0,0,0,0,0,0,0,0,0,0,0,0,0,0,0,0,0,0,0,0,0,0,0,0,0,0,0,0,0,0,0,0,0,0,0,0,0,0,0,0,0,0,0,0,0,0,0,0,0,0,0,0,0,0,0,0,0,0,0,0,0,0,0,0,0,0,0,0,0,0,0,0,0,0,0,0,0,0,0,0,0,0,0,0,0,0,0,0,0,0,0,0,0,0,0,0,0,0,0,0,0,0,0,0,0,0,0,0,0,0,0,0,0,0,0,0,0,0,0,0,0,0,0,0,0,0,0,0,0,0,0,0,0,0,0,0,0,0,0,0,0,0,0,0,0,0,0,0,0,0,0,0,0,0],"sum_hessian":[1.6642788E6,6.684556E5,9.958231E5,3.6940828E5,2.990473E5,7.4382494E5,2.5199819E5,1.6717817E5,2.0223011E5,5.0047125E4,2.490002E5,1.051239E5,6.3870106E5,2.3512789E5,1.6870303E4,3.8616105E4,1.2856206E5,4.836804E4,1.6790876E3,1.4315889E5,1.05841305E5,8.595845E4,1.9165445E4,3.0660442E3,6.35635E5,2.3244772E5,2.6801743E3,1.8608809E1,1.6851693E4,4.9110215E3,3.3705082E4,1.1216302E5,1.6399041E4,4.2670218E2,4.7941336E4,3.855517E2,1.293536E3,4.3684598E4,6.2156707E4,8.585652E4,1.0192665E2,3.252513E3,1.5912933E4,2.1641504E3,9.01894E2,1.0842055E5,5.2721444E5,2.0476388E5,2.7683834E4,2.0855337E3,5.946406E2,3.8630116E1,1.6813062E4,1.481175E3,3.4298464E3,5.4259297E4,5.7903727E4,1.0133111E4,6.2659307E3,2.3999385E2,1.8670834E2,3.2019932E4,1.5921403E4,6.936684E1,3.1618484E2,1.0294248E3,2.641112E2,6.21221E4,3.4605343E1,1.7697482E3,8.408677E4,3.0971743E3,1.5533852E2,1.2471926E4,3.4410068E3,7.97045E2,1.3671053E3,2.0606447E2,6.9582947E2,1.0179451E5,6.6260405E3,6.711516E4,4.600993E5,5.0644204E3,2.2619414E4,3.8235944E2,2.1228119E2,2.180155E1,1.6828564E1,9.058437E2,5.753314E2,3.342096E3,8.775046E1,4.7478402E4,6.7808945E3,2.2143715E4,3.5760016E4,5.91605E3,3.498809E2,8.369763E1,1.03010704E2,2.40897E4,7.930233E3,2.0770217E3,1.3844381E4,1.1947655E2,1.967083E2,5.996796E2,4.2974515E2,1.4436441E2,1.197468E2,5.734954E4,4.7725654E3,1.3709893E3,3.9875885E2,4.35286E4,4.055817E4,1.8090732E3,1.2881012E3,5.205595E1,1.0328256E2,1.1586969E4,8.849572E2,3.4310337E3,9.973079E0,4.6800266E2,3.2904236E2,1.4831712E2,1.2187882E3,1.6974998E2,3.6314487E1,3.5890662E2,3.3692288E2,1.5140883E3,1.0028042E5,1.3981413E2,6.486226E3,6.5234906E4,1.8802463E3,8.930983E4,3.707895E5,4.9489966E3,1.1542349E2,2.0131596E4,2.487819E3,1.2130298E2,2.6105646E2,1.9580504E2,1.6476141E1,9.812766E0,7.0157976E0,3.0970089E1,8.748736E2,3.3110085E3,3.1087288E1,4.723499E4,2.4341167E2,7.300054E2,6.050889E3,2.0841729E4,1.3019852E3,2.1091144E2,3.55491E4,8.650865E2,5.050963E3,7.8741516E1,4.9561167E0,4.136768E1,6.164303E1,6.5635884E3,1.7526111E4,1.603638E3,4.733839E2,1.3522246E4,3.2213495E2,1.978822E1,9.968833E1,1.4916855E0,1.9521661E2,1.4470541E2,2.8503973E2,2.8912687E1,1.1545173E2,3.619042E1,8.355639E1,1.1302696E4,4.604684E4,3.5863718E2,4.413928E3,6.229423E1,1.3086951E3,1.8680914E2,2.119497E2,4.2274617E4,1.2539872E3,2.7490957E4,1.3067217E4,1.7524712E3,5.6602055E1,1.2223319E1,1.2758779E3,3.492033E0,4.856392E1,3.8159336E1,6.512323E1,5.5353843E3,6.0515845E3,1.4785094E2,3.2015173E2,3.3442729E0,3.2569806E2,1.073819E2,4.0935223E1,9.0603546E2,3.1275275E2,4.30315E1,1.2671848E2,3.1378096E1,4.9363894E0,1.1558277E2,2.4332384E2,1.253971E3,2.601173E2,7.393286E4,2.6347562E4,9.506595E1,4.4748188E1,2.8000774E3,3.6861487E3,6.5228204E2,6.4582625E4,1.7345403E3,1.4570613E2,8.8615875E4,6.939472E2,1.7968922E5,1.9110027E5,1.6130903E3,3.3359065E3,6.71022E1,4.8321293E1,1.1279347E4,8.852249E3,6.515244E1,5.615053E1,1.8546934E0,2.5920178E2],"tree_param":{"num_deleted":"0","num_feature":"10","num_nodes":"247","size_leaf_vector":"1"}},{"base_weights":[7.440766E-5,-1.0169051E0,6.758863E-1,-6.265051E-1,-1.491141E0,-1.4992007E0,9.4365793E-1,4.3379253E-1,-1.4927141E-1,-1.4240088E0,-1.5046198E0,-1.492787E-1,-1.5685542E0,1.3208467E0,2.704618E-1,-1.139647E0,9.098896E-1,-1.4449402E0,-8.38927E-1,-1.5065191E0,-1.1371549E0,-1.4883617E-1,-1.5954503E0,1.1407097E-1,1.3468486E0,-1.4939933E-1,1.093552E0,1.0104475E0,-1.4787246E0,9.579299E-1,-1.492242E-1,-1.263455E0,-1.4906906E0,4.6369335E-1,-1.2390915E0,-1.4923825E0,-1.5259341E0,1.3619151E0,-1.5223018E0,-1.4721355E0,-1.6080561E-1,-2.2518663E-1,1.1842772E0,1.103404E0,1.4364296E0,7.6288944E-1,1.4667845E0,1.4237102E0,-3.1035203E-1,-5.848895E-1,-1.4845335E0,7.5140715E-1,1.390064E0,4.1132402E-1,-1.3986437E0,-1.5117863E0,-1.4601469E0,-1.5204789E-1,8.736591E-1,-4.154865E-1,-1.3897767E0,-1.4732337E0,-1.4937066E-1,-1.4928219E-1,-1.5489963E0,1.579093E-2,1.4332615E0,-9.8114276E-1,-1.5311454E-1,-1.5007647E0,-7.536232E-1,1.8649462E-1,-9.4473404E-1,-1.5353398E-1,1.4794964E0,1.2544792E0,-1.5489151E0,-1.499748E0,1.4736568E0,4.4520923E-1,1.3635962E0,-1.142439E0,1.492889E0,1.4399258E0,-1.4289062E-1,-1.2945058E0,1.1430038E0,-1.49168E-1,1.4958522E0,-1.4938635E0,-1.459929E0,1.2097645E0,4.338569E-1,1.4101007E0,1.0264722E0,-1.5030392E-1,1.1641281E0,5.0301576E-1,-1.427755E0,-1.4980986E0,-1.5349833E0,-1.3308363E0,-1.497795E0,-2.2225548E-1,1.4635488E0,-1.3354256E0,5.044966E-1,-1.5068953E-1,-7.946305E-1,-1.3750274E0,-1.4990628E-1,-1.5370865E0,-1.6904749E0,5.28302E-1,-1.24683954E-1,1.4438416E-1,6.195804E-2,-1.4416325E-1,3.0213332E-1,-1.5151173E-1,-1.2202437E0,-1.4612441E-1,9.52174E-1,4.9263173E-1,-1.2109256E0,-1.448958E0,-5.539738E-1,1.3173256E0,1.4906289E-1,1.2696948E0,-1.4916478E-1,-1.5626013E0,-7.8761137E-1,-1.4937197E-1,-1.5982364E-1,1.4288194E0,1.4862031E0,-9.1700464E-1,5.5877286E-1,1.3720908E0,-1.6464041E-1,-1.7330816E0,2.0334928E0,1.0980113E0,1.4935131E0,1.4775003E-1,8.943558E-2,-1.4516565E-1,1.8825892E-2,-1.5263812E-1,1.6202697E-1,1.1556064E-1,1.6039942E-1,-1.4924516E-1,-1.6376644E-1,-6.883699E-2,-1.4941227E-1,1.2440436E-1,-6.985289E-2,-1.5065192E-1,6.6016436E-2,-1.553888E-1,1.412089E-1,6.837611E-2,1.2765814E-1,-1.3348208E-1,1.3665834E-1,-1.5097177E-1,1.4016305E-1,-1.2552892E-1,-1.4954126E-1,-1.5022042E-1,-1.417551E-1,-1.4927627E-1,-1.5616538E-1,-1.4345734E-1,-4.8270848E-2,-3.4349333E-2,-1.5010425E-1,1.9150178E-1,-1.5463659E-1,1.5250689E-1,-1.4186195E-1,-1.4205793E-1,2.7225677E-2,-1.4810224E-1,1.3726269E-1,2.2895256E-2,-1.2999503E-1,-9.372519E-2,-1.4589834E-1,-1.8416487E-1,-1.534981E-1,-1.5864211E-1,-1.7355841E-1,1.1249228E-1,2.1615184E-3,1.8733975E-1,-1.1758178E-1,-1.4789157E-1,-2.8961336E-2,2.009842E-1,-1.1637322E-1,-9.003334E-3,8.111679E-2,-1.355173E-1,4.4648215E-2,-1.5912168E-1,-1.1518456E-1,-9.256611E-2,3.5178495E-4,-1.3624685E-1,1.3996935E-1,1.3942982E-1,1.03611305E-1,-1.4942023E-1,-1.6237296E-1,1.6758831E-1,-1.6345364E-1,1.4504862E-1,-1.595212E-1,-1.7119686E-1,1.4909633E-1,-4.997675E-3,-1.0280689E-1,6.082334E-2,-1.662141E-1,1.2410523E-1,1.4105174E-1,1.5042026E-1,-1.7557673E-1,1.1649678E-1,2.0608485E-1,-1.557581E-1,1.53732E-1,-9.4420485E-2,1.4935534E-1],"categories":[],"categories_nodes":[],"categories_segments":[],"categories_sizes":[],"default_left":[0,0,0,0,0,0,0,0,0,0,0,0,0,0,0,0,0,0,0,0,0,0,0,0,0,0,0,0,0,0,0,0,0,0,0,0,0,0,0,0,0,0,0,0,0,0,0,0,0,0,0,0,0,0,0,0,0,0,0,0,0,0,0,0,0,0,0,0,0,0,0,0,0,0,0,0,0,0,0,0,0,0,0,0,0,0,0,0,0,0,0,0,0,0,0,0,0,0,0,0,0,0,0,0,0,0,0,0,0,0,0,0,0,0,0,0,0,0,0,0,0,0,0,0,0,0,0,0,0,0,0,0,0,0,0,0,0,0,0,0,0,0,0,0,0,0,0,0,0,0,0,0,0,0,0,0,0,0,0,0,0,0,0,0,0,0,0,0,0,0,0,0,0,0,0,0,0,0,0,0,0,0,0,0,0,0,0,0,0,0,0,0,0,0,0,0,0,0,0,0,0,0,0,0,0,0,0,0,0,0,0,0,0,0,0,0,0,0,0,0,0,0,0,0,0,0,0,0,0,0,0,0,0,0,0,0,0],"id":4,"left_children":[1,3,5,7,9,11,13,15,-1,17,19,-1,21,23,25,27,29,31,33,35,37,-1,39,41,43,-1,45,47,49,51,-1,53,55,57,59,61,63,65,67,69,-1,71,73,75,77,79,81,83,85,87,89,91,93,95,97,99,101,-1,103,105,107,109,-1,-1,111,113,115,117,-1,119,121,123,125,-1,127,129,131,133,135,137,139,141,143,145,-1,147,149,-1,151,153,155,157,159,161,163,-1,165,167,169,171,173,175,177,179,181,183,185,-1,187,189,-1,191,193,195,-1,-1,-1,-1,197,-1,199,-1,201,203,205,207,209,211,-1,213,-1,215,217,-1,-1,219,221,223,225,227,-1,229,231,233,235,-1,-1,-1,-1,-1,-1,-1,-1,-1,-1,-1,-1,-1,-1,-1,-1,-1,-1,-1,-1,-1,-1,-1,-1,-1,-1,-1,-1,-1,-1,-1,-1,-1,-1,-1,-1,-1,-1,-1,-1,-1,-1,-1,-1,-1,-1,-1,-1,-1,-1,-1,-1,-1,-1,-1,-1,-1,-1,-1,-1,-1,-1,-1,-1,-1,-1,-1,-1,-1,-1,-1,-1,-1,-1,-1,-1,-1,-1,-1,-1,-1,-1,-1,-1,-1,-1,-1,-1,-1,-1,-1,-1],"loss_changes":[1.093699E6,1.1762044E5,5.56815E5,3.2003456E5,2.574375E2,4.428125E1,2.1614569E5,1.1736785E5,0E0,5.8641406E2,1.65E2,0E0,1.6714844E1,1.711875E4,4.4393434E5,2.6535418E4,1.3881742E4,3.827422E2,8.657007E2,6.29375E1,1.1882538E3,0E0,7.9160156E0,4.1785757E3,1.16449375E4,0E0,2.572339E4,2.7069185E3,1.62375E2,1.05230625E4,0E0,2.113708E3,2.1632812E1,3.1919016E2,1.5702539E2,1.28125E0,7.4109375E1,1.5833282E1,3.6103516E0,1.1730835E1,0E0,2.588862E3,2.2263828E3,5.7566047E4,4.2674312E4,2.1091277E4,6.6710625E3,1.7676416E2,1.6928519E3,3.8835168E2,4.984375E0,1.1613375E4,2.7635156E2,1.0074899E3,4.7882227E2,4.6367188E0,7.17207E1,0E0,2.1009364E2,1.6810553E2,7.359912E1,2.0689453E1,0E0,0E0,9.675E1,6.6904287E0,4.5510864E-1,1.22313595E1,0E0,5.682373E-1,3.2735916E1,2.378948E3,6.258484E2,0E0,2.5483398E0,5.681078E3,7.944141E1,5.1464844E-1,2.146875E2,1.1184403E4,9.797969E2,1.8240133E3,2.2265625E1,7.567529E1,0E0,1.6467542E2,6.1141437E2,0E0,4.5028687E-1,2.1445312E0,2.266914E2,2.1370195E3,2.0700252E4,2.1514844E2,1.7015259E2,0E0,2.5552856E2,2.389682E2,9.738086E1,2.4296875E0,6.7539062E0,3.0048926E2,4.3410156E1,3.2674005E2,3.9589203E1,1.3966293E1,1.737813E2,0E0,9.265731E1,6.7718994E1,0E0,3.20625E1,1.8689453E1,2.1922257E0,0E0,0E0,0E0,0E0,1.636398E1,0E0,7.842354E0,0E0,2.073306E1,8.4661536E2,2.3952649E2,5.683423E1,3.716313E2,3.9244446E1,0E0,3.9327031E3,0E0,2.9367188E1,2.922121E2,0E0,0E0,5.526547E3,4.5878125E3,5.357002E2,7.3314062E3,1.9021875E2,0E0,6.2777344E1,1.2258301E0,1.8523372E2,1.09375E1,0E0,0E0,0E0,0E0,0E0,0E0,0E0,0E0,0E0,0E0,0E0,0E0,0E0,0E0,0E0,0E0,0E0,0E0,0E0,0E0,0E0,0E0,0E0,0E0,0E0,0E0,0E0,0E0,0E0,0E0,0E0,0E0,0E0,0E0,0E0,0E0,0E0,0E0,0E0,0E0,0E0,0E0,0E0,0E0,0E0,0E0,0E0,0E0,0E0,0E0,0E0,0E0,0E0,0E0,0E0,0E0,0E0,0E0,0E0,0E0,0E0,0E0,0E0,0E0,0E0,0E0,0E0,0E0,0E0,0E0,0E0,0E0,0E0,0E0,0E0,0E0,0E0,0E0,0E0,0E0,0E0,0E0,0E0,0E0,0E0,0E0,0E0,0E0,0E0,0E0,0E0,0E0],"parents":[2147483647,0,0,1,1,2,2,3,3,4,4,5,5,6,6,7,7,9,9,10,10,12,12,13,13,14,14,15,15,16,16,17,17,18,18,19,19,20,20,22,22,23,23,24,24,26,26,27,27,28,28,29,29,31,31,32,32,33,33,34,34,35,35,36,36,37,37,38,38,39,39,41,41,42,42,43,43,44,44,45,45,46,46,47,47,48,48,49,49,50,50,51,51,52,52,53,53,54,54,55,55,56,56,58,58,59,59,60,60,61,61,64,64,65,65,66,66,67,67,69,69,70,70,71,71,72,72,74,74,75,75,76,76,77,77,78,78,79,79,80,80,81,81,82,82,83,83,85,85,86,86,88,88,89,89,90,90,91,91,92,92,93,93,94,94,96,96,97,97,98,98,99,99,100,100,101,101,102,102,103,103,104,104,105,105,106,106,108,108,109,109,111,111,112,112,113,113,118,118,120,120,122,122,123,123,124,124,125,125,126,126,127,127,129,129,131,131,132,132,135,135,136,136,137,137,138,138,139,139,141,141,142,142,143,143,144,144],"right_children":[2,4,6,8,10,12,14,16,-1,18,20,-1,22,24,26,28,30,32,34,36,38,-1,40,42,44,-1,46,48,50,52,-1,54,56,58,60,62,64,66,68,70,-1,72,74,76,78,80,82,84,86,88,90,92,94,96,98,100,102,-1,104,106,108,110,-1,-1,112,114,116,118,-1,120,122,124,126,-1,128,130,132,134,136,138,140,142,144,146,-1,148,150,-1,152,154,156,158,160,162,164,-1,166,168,170,172,174,176,178,180,182,184,186,-1,188,190,-1,192,194,196,-1,-1,-1,-1,198,-1,200,-1,202,204,206,208,210,212,-1,214,-1,216,218,-1,-1,220,222,224,226,228,-1,230,232,234,236,-1,-1,-1,-1,-1,-1,-1,-1,-1,-1,-1,-1,-1,-1,-1,-1,-1,-1,-1,-1,-1,-1,-1,-1,-1,-1,-1,-1,-1,-1,-1,-1,-1,-1,-1,-1,-1,-1,-1,-1,-1,-1,-1,-1,-1,-1,-1,-1,-1,-1,-1,-1,-1,-1,-1,-1,-1,-1,-1,-1,-1,-1,-1,-1,-1,-1,-1,-1,-1,-1,-1,-1,-1,-1,-1,-1,-1,-1,-1,-1,-1,-1,-1,-1,-1,-1,-1,-1,-1,-1,-1,-1],"split_conditions":[-2.8865558E-1,-2.4602948E-1,-2.4602948E-1,1.4995328E0,-8.3766496E-1,1.318317E0,-2.7739698E-1,-3.059461E-1,-1.4927141E-1,-1.3763179E0,-2.8886276E-1,-1.492787E-1,-3.2373834E-1,-1.396268E0,1.318317E0,-2.9757717E-1,1.2959912E1,-3.0160806E-1,-1.0770663E0,-3.0587584E-1,-2.4442409E-1,-1.4883617E-1,-1.4694184E0,3.986888E-1,-2.3382854E-1,-1.4939933E-1,1.9366312E-1,-3.0493852E-1,-2.9738715E-1,1.0176953E0,-1.492242E-1,-3.063211E-1,9.000224E-2,1.318317E0,-2.9813913E-1,-3.1098488E-1,1.318317E0,-8.621079E-2,-2.4121638E-1,-1.5359188E0,-1.6080561E-1,-3.0193245E-1,-7.871018E-2,-8.226838E-2,-8.226838E-2,9.977452E-1,-1.4490622E-1,1.2959912E1,-3.0627537E-1,-3.0598512E-1,5.9821937E-2,-3.34801E-1,2.8331554E0,1.318317E0,-1.6423193E0,-3.0587584E-1,2.2828989E-1,-1.5204789E-1,-3.0561316E-1,-1.0571162E0,-2.9965806E-1,-4.519628E-1,-1.4937066E-1,-1.4928219E-1,1.0176953E0,-3.2250255E-1,2.5405538E0,7.7829397E-1,-1.5311454E-1,-1.5558689E0,-1.9421898E-1,-3.1098488E-1,-2.608849E-1,-1.5353398E-1,-1.6157192E0,1.4995328E0,-2.3611769E-1,-2.7813134E-1,1.2782449E-1,-1.396268E0,-1.3801068E-1,6.7068857E-1,-1.5957692E0,-3.36048E-1,-1.4289062E-1,1.0974958E0,1.318317E0,-1.49168E-1,9.910952E-1,-3.0598512E-1,2.930104E-2,-3.117829E-1,1.318317E0,-2.9757717E-1,2.926256E0,-1.5030392E-1,-1.6157192E0,1.318317E0,-1.6841528E-1,-3.061691E-1,1.318317E0,2.4271056E-1,-2.8353783E-1,-3.038273E-1,3.4150976E-1,-3.004005E-1,1.318317E0,-1.5068953E-1,-1.9790795E-1,-3.063211E-1,-1.4990628E-1,-3.2250255E-1,-3.089428E-1,-8.2436484E-1,-1.24683954E-1,1.4438416E-1,6.195804E-2,-1.4416325E-1,7.915941E-1,-1.5151173E-1,-1.9421898E-1,-1.4612441E-1,-1.9016807E-1,-1.5558689E0,1.389224E-1,-2.3411377E-1,-2.2725782E-1,1.909887E-3,1.4906289E-1,-3.36048E-1,-1.4916478E-1,1.318317E0,-7.937914E-2,-1.4937197E-1,-1.5982364E-1,-1.5843879E-1,-1.6481549E-1,-2.4532478E-1,-1.3801068E-1,-2.7021128E-1,-1.6464041E-1,-1.6423193E0,7.5709265E-1,4.5516437E-1,-1.5532878E-1,1.4775003E-1,8.943558E-2,-1.4516565E-1,1.8825892E-2,-1.5263812E-1,1.6202697E-1,1.1556064E-1,1.6039942E-1,-1.4924516E-1,-1.6376644E-1,-6.883699E-2,-1.4941227E-1,1.2440436E-1,-6.985289E-2,-1.5065192E-1,6.6016436E-2,-1.553888E-1,1.412089E-1,6.837611E-2,1.2765814E-1,-1.3348208E-1,1.3665834E-1,-1.5097177E-1,1.4016305E-1,-1.2552892E-1,-1.4954126E-1,-1.5022042E-1,-1.417551E-1,-1.4927627E-1,-1.5616538E-1,-1.4345734E-1,-4.8270848E-2,-3.4349333E-2,-1.5010425E-1,1.9150178E-1,-1.5463659E-1,1.5250689E-1,-1.4186195E-1,-1.4205793E-1,2.7225677E-2,-1.4810224E-1,1.3726269E-1,2.2895256E-2,-1.2999503E-1,-9.372519E-2,-1.4589834E-1,-1.8416487E-1,-1.534981E-1,-1.5864211E-1,-1.7355841E-1,1.1249228E-1,2.1615184E-3,1.8733975E-1,-1.1758178E-1,-1.4789157E-1,-2.8961336E-2,2.009842E-1,-1.1637322E-1,-9.003334E-3,8.111679E-2,-1.355173E-1,4.4648215E-2,-1.5912168E-1,-1.1518456E-1,-9.256611E-2,3.5178495E-4,-1.3624685E-1,1.3996935E-1,1.3942982E-1,1.03611305E-1,-1.4942023E-1,-1.6237296E-1,1.6758831E-1,-1.6345364E-1,1.4504862E-1,-1.595212E-1,-1.7119686E-1,1.4909633E-1,-4.997675E-3,-1.0280689E-1,6.082334E-2,-1.662141E-1,1.2410523E-1,1.4105174E-1,1.5042026E-1,-1.7557673E-1,1.1649678E-1,2.0608485E-1,-1.557581E-1,1.53732E-1,-9.4420485E-2,1.4935534E-1],"split_indices":[2,1,1,8,0,6,4,2,0,0,2,0,5,0,6,1,7,4,0,2,1,0,0,1,2,0,1,4,1,0,0,2,5,6,4,4,6,0,1,0,0,5,2,1,1,0,2,7,2,2,4,5,0,6,0,2,5,0,2,0,2,0,0,0,0,5,0,0,0,0,2,4,2,0,0,8,2,5,1,0,2,1,0,5,0,0,6,0,0,2,5,4,6,1,0,0,0,6,1,2,6,4,4,4,4,4,6,0,1,2,0,5,4,0,0,0,0,0,0,0,2,0,2,0,1,5,5,2,0,5,0,6,1,0,0,2,2,5,2,2,0,0,1,1,5,0,0,0,0,0,0,0,0,0,0,0,0,0,0,0,0,0,0,0,0,0,0,0,0,0,0,0,0,0,0,0,0,0,0,0,0,0,0,0,0,0,0,0,0,0,0,0,0,0,0,0,0,0,0,0,0,0,0,0,0,0,0,0,0,0,0,0,0,0,0,0,0,0,0,0,0,0,0,0,0,0,0,0,0,0,0,0,0,0,0,0,0],"split_type":[0,0,0,0,0,0,0,0,0,0,0,0,0,0,0,0,0,0,0,0,0,0,0,0,0,0,0,0,0,0,0,0,0,0,0,0,0,0,0,0,0,0,0,0,0,0,0,0,0,0,0,0,0,0,0,0,0,0,0,0,0,0,0,0,0,0,0,0,0,0,0,0,0,0,0,0,0,0,0,0,0,0,0,0,0,0,0,0,0,0,0,0,0,0,0,0,0,0,0,0,0,0,0,0,0,0,0,0,0,0,0,0,0,0,0,0,0,0,0,0,0,0,0,0,0,0,0,0,0,0,0,0,0,0,0,0,0,0,0,0,0,0,0,0,0,0,0,0,0,0,0,0,0,0,0,0,0,0,0,0,0,0,0,0,0,0,0,0,0,0,0,0,0,0,0,0,0,0,0,0,0,0,0,0,0,0,0,0,0,0,0,0,0,0,0,0,0,0,0,0,0,0,0,0,0,0,0,0,0,0,0,0,0,0,0,0,0,0,0,0,0,0,0,0,0,0,0,0,0,0,0,0,0,0,0,0,0],"sum_hessian":[1.5913262E6,6.353038E5,9.5602244E5,3.4845297E5,2.8685084E5,1.0479301E5,8.5122944E5,1.5667403E5,1.9177894E5,4.7981562E4,2.3886927E5,9.594282E4,8.850183E3,5.45556E5,3.0567344E5,3.6394266E4,1.2027977E5,4.6322887E4,1.6586747E3,2.3763789E5,1.231384E3,2.2369392E3,6.6132437E3,1.1507098E4,5.340489E5,9.723352E4,2.0843992E5,4.9573945E3,3.1436871E4,1.1792205E5,2.357729E3,9.332167E3,3.6990723E4,3.8976114E2,1.2689136E3,1.3755702E5,1.0008087E5,1.6409546E2,1.0672886E3,6.2426465E2,5.988979E3,8.737941E3,2.769156E3,1.4365806E5,3.903908E5,1.10524555E5,9.791537E4,3.775886E3,1.1815087E3,2.0364336E2,3.1233227E4,7.979139E4,3.8130656E4,6.96878E2,8.635289E3,2.1850557E4,1.5140164E4,6.62778E1,3.2348334E2,1.9683313E2,1.0720804E3,8.96758E3,1.2858944E5,4.1114766E4,5.89661E4,8.320984E0,1.5577448E2,1.8961224E1,1.0483274E3,5.9929694E2,2.4967745E1,5.5584663E3,3.1794753E3,2.707503E2,2.4984058E3,1.3591681E5,7.741243E3,4.887225E3,3.855036E5,7.229402E4,3.8230527E4,9.694925E2,9.6945875E4,3.755036E3,2.0850117E1,7.045352E2,4.7697342E2,1.420297E2,6.1613655E1,2.2602688E4,8.630539E3,3.2654516E4,4.713687E4,3.613638E4,1.9942759E3,1.9641151E2,5.0046646E2,1.2995363E2,8.505335E3,1.378316E4,8.067397E3,3.4222085E3,1.1717955E4,1.13410034E2,2.100733E2,9.819312E1,9.864001E1,8.945168E2,1.7756366E2,1.8787021E3,7.0888774E3,5.4398625E4,4.5674766E3,6.3322587E0,1.9887247E0,1.5301045E2,2.7640197E0,1.3863174E1,5.0980496E0,5.6594E2,3.335689E1,1.7748465E1,7.2192807E0,4.560115E3,9.983509E2,1.3870125E3,1.7924629E3,1.6815506E2,2.3302507E3,1.3516842E5,7.48398E2,7.6035E3,1.3774304E2,4.6205684E3,2.6665695E2,8.4310984E4,3.0119262E5,5.562605E3,6.673142E4,3.812348E4,1.07045364E2,8.178479E2,1.5164459E2,1.5572488E2,9.679015E4,3.5114849E3,2.4355115E2,6.370396E2,6.749559E1,7.201117E1,4.0496225E2,1.7678385E1,4.393527E1,2.239419E4,2.0849875E2,3.671502E2,8.263389E3,3.2078627E4,5.758879E2,4.9227983E3,4.2214074E4,2.3701082E1,3.611268E4,8.429546E2,1.1513213E3,3.7088005E1,4.6337848E2,3.9901493E1,9.005213E1,2.4019866E3,6.1033486E3,1.3097896E4,6.8526306E2,3.145259E3,4.922138E3,3.0486304E3,3.735781E2,3.317357E1,1.1684782E4,4.321292E1,7.019711E1,2.06144E2,3.9293015E0,9.336431E1,4.828813E0,2.9793251E1,6.8846756E1,5.8867565E1,1.186961E2,3.0427448E2,1.5744277E3,3.674888E2,5.4031137E4,1.3922169E3,3.1752598E3,2.3477008E0,3.984558E0,2.3413308E0,2.7567189E0,2.5640787E1,7.716104E0,4.8467073E0,2.3725734E0,1.6120594E3,2.9480557E3,9.185869E2,7.976403E1,9.3498267E2,4.520298E2,1.0750513E3,7.174117E2,4.550956E0,1.6360411E2,8.814354E4,4.7024875E4,3.6003542E3,4.003146E3,3.4989243E1,1.027538E2,8.371172E4,5.992639E2,4.470878E2,3.0074553E5,6.318089E2,4.930796E3,6.5278375E4,1.4530465E3,8.652123E3,2.947136E4,5.2368445E0,8.126111E2,5.961352E0,1.4568324E2,2.1743198E1,1.3398169E2,1.2167172E0,9.678893E4],"tree_param":{"num_deleted":"0","num_feature":"10","num_nodes":"237","size_leaf_vector":"1"}},{"base_weights":[2.4817348E-4,-9.5925254E-1,6.43883E-1,-1.3768903E0,-5.637488E-1,1.2830373E0,-1.2476848E0,-1.4093636E0,-1.2006289E0,-1.4306612E-1,-1.4413648E0,8.014295E-1,1.3642063E0,-1.4429982E0,1.0752902E0,-1.4116465E0,-1.2391455E0,-1.3371786E0,-1.8286557E-1,5.01029E-1,-6.505326E-1,-1.4282145E-1,-1.645494E0,1.3717502E0,1.6135046E-1,1.1956121E0,1.4089234E0,-1.427426E0,-1.552563E0,1.4198146E0,-1.2190566E0,-1.3919605E0,-1.4235923E-1,-1.004784E0,-1.4254896E-1,-1.3727987E0,-9.2249155E-1,1.4078131E0,-1.3648949E0,-2.9278305E-1,1.4086137E0,-8.358838E-1,4.5476142E-1,-1.6351439E0,-1.7829022E-1,1.3747725E0,-1.7044094E-1,-1.4348079E0,3.8368887E-1,1.3784951E0,8.4509814E-1,6.824979E-1,1.4109733E0,-1.4318225E0,-1.4239287E-1,-1.4267062E-1,-1.5643438E0,-1.4717706E-1,1.4233687E0,-1.4468173E0,5.5070573E-1,-1.4244665E-1,-2.0868854E-1,-1.4233421E-1,1.4041454E0,-9.449174E-2,-1.3782551E0,-1.4244269E-1,-4.2625493E-1,1.4161992E-1,-1.4079843E-1,-1.4266144E-1,1.6871282E0,-1.4241607E-1,7.8269094E-1,1.428637E0,-1.5170423E0,-1.3443583E0,-6.520385E-1,-1.4256872E0,6.8627816E-1,-1.6636918E-1,-1.609485E-1,1.2380775E0,1.4247184E0,-1.5451988E0,-6.8702453E-1,5.476343E-2,1.1987382E0,1.4215904E0,1.2012045E0,-1.4523369E-1,9.891561E-1,-1.7540278E-1,1.27653E0,1.3382416E0,1.4181967E0,-1.425386E-1,-1.4366194E0,-1.4770381E0,-1.5831419E0,1.4242987E-1,-1.3177437E-1,-1.5037133E-1,-1.4258815E-1,1.1472135E0,-1.4239587E-1,6.226793E-1,-1.0787653E0,1.4319809E-1,7.217358E-1,-1.4082138E-1,1.2114178E0,-1.4250454E-1,-1.3157761E0,9.5093936E-1,-6.850663E-1,1.4113037E-1,1.9737217E-1,5.4500973E-1,1.2929223E0,1.430263E0,-1.5453291E-1,-1.7327514E-1,-1.4681862E-1,4.4965288E-1,-1.3658115E0,6.3039735E-3,-8.9839756E-1,-4.5729738E-1,-1.4855311E0,-1.4395268E-1,7.8292286E-1,-1.4628339E0,1.2791296E0,1.4294288E0,-2.0677042E-1,-1.6920877E0,-1.4350587E0,2.5907573E-1,-1.4267629E0,-1.4375782E-1,2.0428146E-1,-1.4347115E-1,1.2373188E0,1.423212E0,-1.7418766E-1,7.852959E-1,1.360785E0,-1.3035682E0,1.0509342E0,1.3826108E0,-7.569827E-1,1.3061383E0,-1.3433938E-1,1.401239E0,1.1145532E0,1.3919076E0,1.4220182E0,-1.5041509E0,-1.429194E-1,-1.4917502E0,-8.417334E-1,-1.5521951E0,-1.6186672E0,-1.5530686E-1,1.2811043E0,1.3087018E-1,1.4558777E-2,-1.4346556E-1,4.4287127E-2,-1.05005525E-1,1.3234895E-1,1.4190839E-1,-1.2797116E-1,1.7689792E-2,-1.3636403E-1,-1.3283241E-2,1.4382313E-1,-1.0980194E-1,-1.3727363E-3,7.882322E-2,9.297235E-3,1.0451134E-1,1.3567786E-1,1.4308076E-1,7.956993E-2,1.2775308E-1,-1.08042516E-1,-1.4339666E-1,-1.1662308E-1,-3.0453319E-2,9.9929534E-2,-1.4280927E-1,-7.967062E-2,-1.4778037E-1,9.521501E-2,-1.5055405E-1,-5.6145925E-2,8.717533E-2,-2.6485989E-2,1.0331171E-1,-1.5063423E-1,1.32543845E-2,1.3008557E-1,1.4297728E-1,-1.4059488E-1,-1.5104082E-1,-1.8330254E-1,-1.1349068E-1,-1.4692973E-1,-3.404973E-2,1.1929438E-1,-5.892033E-2,-1.5318358E-1,1.0898731E-1,7.317421E-3,1.2410468E-1,-1.8919788E-1,1.0830648E-1,1.4251181E-1,-1.9431129E-1,1.20752566E-1,-1.5546462E-1,1.3689435E-1,1.5871506E-2,-1.633707E-1,-7.5920634E-2,1.1057594E-1,1.275786E-1,2.0305578E-1,1.5834413E-1,-9.245642E-2,9.205421E-2,1.4085458E-1,1.4208476E-1,1.3127936E-1,-1.4451465E-1,1.2714528E-1,1.4152023E-1,1.2131616E-1,1.4121966E-1,1.424276E-1,-1.537638E-1,-1.4423446E-1,-1.5552334E-1,-1.4721228E-1,-1.6289918E-1,2.4706548E-2,-1.589697E-1,-1.4367515E-2,-1.5702057E-1,-1.6328411E-1,1.3606296E-1,-1.3294575E-1],"categories":[],"categories_nodes":[],"categories_segments":[],"categories_sizes":[],"default_left":[0,0,0,0,0,0,0,0,0,0,0,0,0,0,0,0,0,0,0,0,0,0,0,0,0,0,0,0,0,0,0,0,0,0,0,0,0,0,0,0,0,0,0,0,0,0,0,0,0,0,0,0,0,0,0,0,0,0,0,0,0,0,0,0,0,0,0,0,0,0,0,0,0,0,0,0,0,0,0,0,0,0,0,0,0,0,0,0,0,0,0,0,0,0,0,0,0,0,0,0,0,0,0,0,0,0,0,0,0,0,0,0,0,0,0,0,0,0,0,0,0,0,0,0,0,0,0,0,0,0,0,0,0,0,0,0,0,0,0,0,0,0,0,0,0,0,0,0,0,0,0,0,0,0,0,0,0,0,0,0,0,0,0,0,0,0,0,0,0,0,0,0,0,0,0,0,0,0,0,0,0,0,0,0,0,0,0,0,0,0,0,0,0,0,0,0,0,0,0,0,0,0,0,0,0,0,0,0,0,0,0,0,0,0,0,0,0,0,0,0,0,0,0,0,0,0,0,0,0,0,0,0,0,0,0,0,0,0,0,0,0,0,0,0,0,0,0,0,0,0,0,0,0,0,0],"id":5,"left_children":[1,3,5,7,9,11,13,15,17,19,21,23,25,27,29,31,33,35,37,39,41,-1,43,45,47,49,51,53,55,57,59,61,-1,63,-1,65,67,69,71,73,75,77,79,81,-1,83,-1,85,87,89,91,93,95,97,-1,-1,99,-1,101,103,105,-1,107,-1,109,111,113,-1,115,-1,-1,-1,117,-1,119,121,123,125,127,129,131,-1,-1,133,135,137,139,141,143,145,147,-1,149,151,153,155,157,-1,159,161,163,-1,-1,-1,-1,165,-1,167,169,-1,171,-1,173,-1,175,177,179,-1,-1,181,183,185,-1,-1,-1,187,189,191,193,195,197,-1,199,201,203,205,-1,207,209,211,213,-1,215,-1,217,219,-1,221,223,225,227,229,231,233,-1,235,237,239,241,243,-1,245,247,249,251,-1,253,-1,-1,-1,-1,-1,-1,-1,-1,-1,-1,-1,-1,-1,-1,-1,-1,-1,-1,-1,-1,-1,-1,-1,-1,-1,-1,-1,-1,-1,-1,-1,-1,-1,-1,-1,-1,-1,-1,-1,-1,-1,-1,-1,-1,-1,-1,-1,-1,-1,-1,-1,-1,-1,-1,-1,-1,-1,-1,-1,-1,-1,-1,-1,-1,-1,-1,-1,-1,-1,-1,-1,-1,-1,-1,-1,-1,-1,-1,-1,-1,-1,-1,-1,-1,-1,-1,-1,-1],"loss_changes":[9.356209E5,1.0046875E5,1.0962722E6,1.6916875E3,1.1533966E5,2.6493E4,1.0390472E5,9.534375E1,6.397125E3,6.9025875E4,2.6939062E2,3.5684715E4,4.371E3,3.5825E2,1.4041885E4,5.596875E1,1.4330615E2,5.9825E2,1.024273E4,6.704755E4,2.419898E4,0E0,5.7890625E0,4.829453E2,1.6347008E4,7.793297E3,6.816875E2,7.8125E-1,3.6726562E1,1.6080664E2,9.3574756E2,3.5820469E3,0E0,1.4855422E3,0E0,2.605625E2,7.9981836E2,5.6834473E1,5.910918E2,6.0405938E4,2.5457656E3,9.455203E3,7.3862427E3,1.5E0,0E0,3.508203E2,0E0,4.6384082E2,1.0838865E4,6.0878125E2,1.3800152E4,6.5856866E2,2.3825E2,5E-1,0E0,0E0,3.708203E1,0E0,4.119922E1,3.0419922E-1,3.1401077E2,0E0,1.8027953E3,0E0,3.1133423E0,2.760798E2,1.06921875E2,0E0,5.771373E2,0E0,0E0,0E0,2.1475067E0,0E0,3.085833E3,2.1073438E2,5.7159424E-1,1.0344141E3,1.2049912E4,1.0710693E2,3.1043838E3,0E0,0E0,1.5350469E3,6.2508594E2,7.695215E1,5.0864893E2,6.4279136E3,1.1828496E3,3.3217188E2,1.0363574E3,0E0,5.5583477E3,4.8074957E2,6.097461E1,5.806328E2,3.975E1,0E0,2.1273438E1,3.865332E1,1.9191406E1,0E0,0E0,0E0,0E0,7.582617E1,0E0,4.1699533E2,6.600625E2,0E0,1.2661558E1,0E0,4.358486E1,0E0,1.1397344E3,1.3553723E2,3.775993E2,0E0,0E0,1.9091084E3,1.2655957E2,1.3765625E1,0E0,0E0,0E0,4.044043E2,3.5938672E2,6.245213E3,2.9110469E3,1.5918446E2,3.1534668E1,0E0,1.3450381E3,2.4088593E1,3.3914258E2,3.884375E1,0E0,5.0925293E1,2.7216797E1,1.7931377E2,3.4979553E1,0E0,3.0400725E3,0E0,1.3601562E2,4.0109375E1,0E0,4.9982876E3,2.707871E2,4.9742834E2,3.7922656E3,7.39447E0,1.5291763E2,2.8532593E1,0E0,5.4035156E1,3.6499004E3,2.1821875E2,6E0,7.323242E0,0E0,2.9101562E0,8.5208725E1,5.585547E2,3.7363281E0,0E0,4.2318176E1,0E0,0E0,0E0,0E0,0E0,0E0,0E0,0E0,0E0,0E0,0E0,0E0,0E0,0E0,0E0,0E0,0E0,0E0,0E0,0E0,0E0,0E0,0E0,0E0,0E0,0E0,0E0,0E0,0E0,0E0,0E0,0E0,0E0,0E0,0E0,0E0,0E0,0E0,0E0,0E0,0E0,0E0,0E0,0E0,0E0,0E0,0E0,0E0,0E0,0E0,0E0,0E0,0E0,0E0,0E0,0E0,0E0,0E0,0E0,0E0,0E0,0E0,0E0,0E0,0E0,0E0,0E0,0E0,0E0,0E0,0E0,0E0,0E0,0E0,0E0,0E0,0E0,0E0,0E0,0E0,0E0,0E0,0E0,0E0,0E0,0E0,0E0,0E0],"parents":[2147483647,0,0,1,1,2,2,3,3,4,4,5,5,6,6,7,7,8,8,9,9,10,10,11,11,12,12,13,13,14,14,15,15,16,16,17,17,18,18,19,19,20,20,22,22,23,23,24,24,25,25,26,26,27,27,28,28,29,29,30,30,31,31,33,33,35,35,36,36,37,37,38,38,39,39,40,40,41,41,42,42,43,43,45,45,47,47,48,48,49,49,50,50,51,51,52,52,53,53,56,56,58,58,59,59,60,60,62,62,64,64,65,65,66,66,68,68,72,72,74,74,75,75,76,76,77,77,78,78,79,79,80,80,83,83,84,84,85,85,86,86,87,87,88,88,89,89,90,90,92,92,93,93,94,94,95,95,96,96,98,98,99,99,100,100,105,105,107,107,108,108,110,110,112,112,114,114,115,115,116,116,119,119,120,120,121,121,125,125,126,126,127,127,128,128,129,129,130,130,132,132,133,133,134,134,135,135,137,137,138,138,139,139,140,140,142,142,144,144,145,145,147,147,148,148,149,149,150,150,151,151,152,152,153,153,155,155,156,156,157,157,158,158,159,159,161,161,162,162,163,163,164,164,166,166],"right_children":[2,4,6,8,10,12,14,16,18,20,22,24,26,28,30,32,34,36,38,40,42,-1,44,46,48,50,52,54,56,58,60,62,-1,64,-1,66,68,70,72,74,76,78,80,82,-1,84,-1,86,88,90,92,94,96,98,-1,-1,100,-1,102,104,106,-1,108,-1,110,112,114,-1,116,-1,-1,-1,118,-1,120,122,124,126,128,130,132,-1,-1,134,136,138,140,142,144,146,148,-1,150,152,154,156,158,-1,160,162,164,-1,-1,-1,-1,166,-1,168,170,-1,172,-1,174,-1,176,178,180,-1,-1,182,184,186,-1,-1,-1,188,190,192,194,196,198,-1,200,202,204,206,-1,208,210,212,214,-1,216,-1,218,220,-1,222,224,226,228,230,232,234,-1,236,238,240,242,244,-1,246,248,250,252,-1,254,-1,-1,-1,-1,-1,-1,-1,-1,-1,-1,-1,-1,-1,-1,-1,-1,-1,-1,-1,-1,-1,-1,-1,-1,-1,-1,-1,-1,-1,-1,-1,-1,-1,-1,-1,-1,-1,-1,-1,-1,-1,-1,-1,-1,-1,-1,-1,-1,-1,-1,-1,-1,-1,-1,-1,-1,-1,-1,-1,-1,-1,-1,-1,-1,-1,-1,-1,-1,-1,-1,-1,-1,-1,-1,-1,-1,-1,-1,-1,-1,-1,-1,-1,-1,-1,-1,-1,-1],"split_conditions":[-2.882843E-1,-3.0587584E-1,-2.783059E-1,-3.063211E-1,-2.783059E-1,-2.6820746E-1,2.691214E0,2.3743029E0,2.691214E0,-3.1767902E-1,1.318317E0,-3.0679256E-1,-2.2309412E-1,1.318317E0,-3.36048E-1,-3.0160806E-1,-3.285627E-1,1.0176953E0,-3.36048E-1,2.691214E0,1.0176953E0,-1.4282145E-1,1.0974958E0,-2.9693055E-1,-3.08042E-1,-2.574559E-1,-1.562519E0,-2.7739698E-1,-3.2373834E-1,-1.9421898E-1,2.163336E-2,1.318317E0,-1.4235923E-1,1.318317E0,-1.4254896E-1,-1.6423193E0,1.318317E0,-3.08042E-1,1.318317E0,1.318317E0,-3.36048E-1,-2.9926407E-1,-2.9813913E-1,-2.9464012E-1,-1.7829022E-1,2.691214E0,-1.7044094E-1,-2.706601E-1,1.0176953E0,-2.9224086E-1,1.318317E0,-1.2313767E-1,-1.9814965E-1,-2.2760594E-1,-1.4239287E-1,-1.4267062E-1,-8.9751524E-1,-1.4717706E-1,-3.1423506E-1,-2.9693055E-1,-2.554738E-1,-1.4244665E-1,-3.135168E-1,-1.4233421E-1,-3.36048E-1,1.318317E0,1.318317E0,-1.4244269E-1,-3.285627E-1,1.4161992E-1,-1.4079843E-1,-1.4266144E-1,-1.6223693E0,-1.4241607E-1,1.0176953E0,-3.0698666E-1,-3.310638E-1,-1.6356694E0,-2.3074047E-1,-3.1526834E-1,1.318317E0,-1.6636918E-1,-1.609485E-1,-3.2373834E-1,-3.3355743E-1,-2.7813134E-1,-2.9224086E-1,1.318317E0,1.318317E0,-3.004005E-1,-2.5096336E-1,-1.4523369E-1,-3.004005E-1,-2.8073817E-1,1.330862E0,-1.8745987E-1,-1.5843879E-1,-1.425386E-1,-2.5656945E-1,-1.3763179E0,-1.8524672E-1,1.4242987E-1,-1.3177437E-1,-1.5037133E-1,-1.4258815E-1,-3.1423506E-1,-1.4239587E-1,-3.36048E-1,-3.0914047E-1,1.4319809E-1,-3.0698666E-1,-1.4082138E-1,-3.36048E-1,-1.4250454E-1,-3.36048E-1,-3.08042E-1,-1.7710248E-2,1.4113037E-1,1.9737217E-1,-3.2620993E-1,-3.008261E-1,-3.1098488E-1,-1.5453291E-1,-1.7327514E-1,-1.4681862E-1,-3.030017E-1,-3.1423506E-1,-2.389684E-1,1.318317E0,-3.08042E-1,-2.9926407E-1,-1.4395268E-1,2.8331554E0,-1.6423193E0,-1.396268E0,-3.1098488E-1,-2.0677042E-1,-1.8596134E-1,-1.4760685E0,-3.1423506E-1,-1.4760685E0,-1.4375782E-1,-2.7948081E-1,-1.4347115E-1,4.0526466E0,-1.5691689E0,-1.7418766E-1,-3.1423506E-1,1.318317E0,-1.4760685E0,-1.396268E0,-2.8968498E-1,-1.6423193E0,1.909887E-3,-1.3433938E-1,-2.5305182E-1,1.318317E0,-1.6982082E-2,-7.871018E-2,-1.6780175E-1,-1.429194E-1,-2.9813913E-1,-2.0362025E-1,-1.6585113E-1,-2.6602614E-1,-1.5530686E-1,1.8743946E-1,1.3087018E-1,1.4558777E-2,-1.4346556E-1,4.4287127E-2,-1.05005525E-1,1.3234895E-1,1.4190839E-1,-1.2797116E-1,1.7689792E-2,-1.3636403E-1,-1.3283241E-2,1.4382313E-1,-1.0980194E-1,-1.3727363E-3,7.882322E-2,9.297235E-3,1.0451134E-1,1.3567786E-1,1.4308076E-1,7.956993E-2,1.2775308E-1,-1.08042516E-1,-1.4339666E-1,-1.1662308E-1,-3.0453319E-2,9.9929534E-2,-1.4280927E-1,-7.967062E-2,-1.4778037E-1,9.521501E-2,-1.5055405E-1,-5.6145925E-2,8.717533E-2,-2.6485989E-2,1.0331171E-1,-1.5063423E-1,1.32543845E-2,1.3008557E-1,1.4297728E-1,-1.4059488E-1,-1.5104082E-1,-1.8330254E-1,-1.1349068E-1,-1.4692973E-1,-3.404973E-2,1.1929438E-1,-5.892033E-2,-1.5318358E-1,1.0898731E-1,7.317421E-3,1.2410468E-1,-1.8919788E-1,1.0830648E-1,1.4251181E-1,-1.9431129E-1,1.20752566E-1,-1.5546462E-1,1.3689435E-1,1.5871506E-2,-1.633707E-1,-7.5920634E-2,1.1057594E-1,1.275786E-1,2.0305578E-1,1.5834413E-1,-9.245642E-2,9.205421E-2,1.4085458E-1,1.4208476E-1,1.3127936E-1,-1.4451465E-1,1.2714528E-1,1.4152023E-1,1.2131616E-1,1.4121966E-1,1.424276E-1,-1.537638E-1,-1.4423446E-1,-1.5552334E-1,-1.4721228E-1,-1.6289918E-1,2.4706548E-2,-1.589697E-1,-1.4367515E-2,-1.5702057E-1,-1.6328411E-1,1.3606296E-1,-1.3294575E-1],"split_indices":[2,2,3,2,3,2,9,0,9,5,6,5,2,6,5,4,5,0,5,9,0,0,0,4,4,5,0,4,5,2,2,6,0,6,0,0,6,4,6,6,5,4,4,5,0,9,0,2,0,5,6,2,2,3,0,0,0,0,4,4,4,0,4,0,5,6,6,0,5,0,0,0,0,0,0,4,5,0,5,5,6,0,0,5,5,5,5,6,6,4,2,0,4,5,4,5,2,0,2,0,4,0,0,0,0,4,0,5,5,0,4,0,5,0,5,4,4,0,0,5,2,4,0,0,0,2,4,4,6,4,4,0,0,0,0,4,0,0,0,4,0,0,5,0,4,0,0,4,6,0,0,5,0,2,0,5,6,5,2,3,0,4,3,5,2,0,2,0,0,0,0,0,0,0,0,0,0,0,0,0,0,0,0,0,0,0,0,0,0,0,0,0,0,0,0,0,0,0,0,0,0,0,0,0,0,0,0,0,0,0,0,0,0,0,0,0,0,0,0,0,0,0,0,0,0,0,0,0,0,0,0,0,0,0,0,0,0,0,0,0,0,0,0,0,0,0,0,0,0,0,0,0,0,0,0],"split_type":[0,0,0,0,0,0,0,0,0,0,0,0,0,0,0,0,0,0,0,0,0,0,0,0,0,0,0,0,0,0,0,0,0,0,0,0,0,0,0,0,0,0,0,0,0,0,0,0,0,0,0,0,0,0,0,0,0,0,0,0,0,0,0,0,0,0,0,0,0,0,0,0,0,0,0,0,0,0,0,0,0,0,0,0,0,0,0,0,0,0,0,0,0,0,0,0,0,0,0,0,0,0,0,0,0,0,0,0,0,0,0,0,0,0,0,0,0,0,0,0,0,0,0,0,0,0,0,0,0,0,0,0,0,0,0,0,0,0,0,0,0,0,0,0,0,0,0,0,0,0,0,0,0,0,0,0,0,0,0,0,0,0,0,0,0,0,0,0,0,0,0,0,0,0,0,0,0,0,0,0,0,0,0,0,0,0,0,0,0,0,0,0,0,0,0,0,0,0,0,0,0,0,0,0,0,0,0,0,0,0,0,0,0,0,0,0,0,0,0,0,0,0,0,0,0,0,0,0,0,0,0,0,0,0,0,0,0,0,0,0,0,0,0,0,0,0,0,0,0,0,0,0,0,0,0],"sum_hessian":[1.5150064E6,6.0825206E5,9.0675425E5,2.958464E5,3.124057E5,6.777464E5,2.2900789E5,2.4981495E5,4.6031453E4,2.1117886E5,1.0122682E5,9.775248E4,5.7999394E5,2.1124684E5,1.776104E4,2.4650172E5,3.3132263E3,4.058588E4,5.445576E3,9.3061625E4,1.1811724E5,9.510783E4,6.1189907E3,5.1692496E4,4.605998E4,1.2159186E5,4.5840206E5,1.8497142E5,2.6275424E4,1.5442534E4,2.318505E3,9.313543E4,1.533663E5,1.4703652E3,1.8428611E3,3.7373332E4,3.2125457E3,2.3214146E3,3.1241616E3,4.9642695E4,4.341893E4,1.0115448E5,1.696276E4,5.7023687E3,4.1662198E2,5.164231E4,5.018527E1,5.6308545E3,4.0429125E4,7.990035E4,4.169151E4,1.2908335E3,4.5711122E5,8.1768555E4,1.0320287E5,2.259445E3,2.401598E4,1.8450394E1,1.5424084E4,2.0543071E3,2.6419778E2,9.0645086E4,2.4903442E3,1.253053E3,2.1731226E2,1.5892862E2,3.7214402E4,1.5961727E3,1.6163728E3,2.3150168E3,6.397657E0,3.0627576E3,6.1404068E1,2.4192418E4,2.5450277E4,4.3124297E4,2.9463272E2,2.6859861E4,7.429462E4,1.8589175E3,1.5103843E4,2.6690095E3,3.0333591E3,1.3826592E4,3.781572E4,4.9056025E3,7.252516E2,2.8805355E4,1.1623769E4,6.427061E4,1.5629736E4,2.459432E3,3.923208E4,5.2840955E2,7.62424E2,4.131336E4,4.1579784E5,3.5044074E4,4.6724477E4,4.26893E3,1.9747049E4,1.5419333E4,4.7509284E0,5.335304E2,1.5207767E3,2.0322615E2,6.0971634E1,1.2736459E3,1.2166982E3,2.0774013E2,9.572135E0,7.918828E1,7.974034E1,2.1266322E4,1.5948081E4,2.5528246E2,1.3610905E3,3.4308823E1,2.7095245E1,1.7363773E4,8.086504E3,4.3101254E4,2.304577E1,4.8043766E1,2.4658894E2,3.17164E2,2.6542697E4,2.0231414E4,5.4063203E4,1.08693306E2,1.7502242E3,6.561963E2,1.4447646E4,2.0649005E2,1.3620102E4,3.776537E4,5.0346275E1,2.0959573E3,2.8096455E3,3.1852225E2,4.0672937E2,2.6224119E3,2.6182945E4,1.6730899E2,1.145646E4,6.4238234E4,3.2377846E1,4.3356973E3,1.129404E4,1.028855E3,3.8203223E4,1.4325682E2,3.8515274E2,7.5439984E2,8.024162E0,3.2230893E4,9.08247E3,5.28175E4,3.6298034E5,4.608702E3,4.2115777E4,4.170992E3,9.7937965E1,1.0577489E4,9.169561E3,9.099992E0,1.9412616E2,5.21715E2,7.5193085E2,9.861161E2,2.3058217E2,2.2379048E0,7.33423E0,7.400174E1,5.738604E0,4.9541907E2,1.5452662E4,7.940579E1,1.7587666E2,8.42325E2,5.187654E2,1.1288927E4,6.0748457E3,1.6603794E3,6.4261245E3,4.3063047E4,3.8204582E1,2.0591487E2,1.11249115E2,1.9781346E4,6.76135E3,1.5408704E4,4.82271E3,8.705338E3,4.5357867E4,6.301731E1,4.5676E1,1.7125133E3,3.771096E1,1.3318666E4,1.1289805E3,3.1480925E0,2.0334196E2,2.5341447E2,1.33666875E4,3.7761285E4,4.0869265E0,9.207535E2,1.1752037E3,2.9117865E2,2.5184668E3,1.9436751E2,1.2415473E2,4.6073635E1,3.6065573E2,3.3754487E3,2.2807496E4,1.144343E4,1.3029688E1,3.6113593E2,6.3877098E4,5.8056146E2,3.7551355E3,3.0987816E1,1.1263052E4,1.8959612E2,8.3925885E2,1.1226973E3,3.7080527E4,1.2553007E2,1.7726744E1,2.5170843E1,3.599819E2,1.6040697E2,5.9399286E2,2.6369625E4,5.861267E3,5.2409143E2,8.558378E3,4.6721668E4,6.095831E3,6.796133E4,2.9501903E5,2.9736667E3,1.6350353E3,9.665488E2,3.204443E3,5.6551876E1,4.138609E1,1.0303041E4,2.7444803E2,2.1002922E3,7.069268E3,1.8885197E2,5.2741766E0],"tree_param":{"num_deleted":"0","num_feature":"10","num_nodes":"255","size_leaf_vector":"1"}},{"base_weights":[1.6997136E-4,-9.144008E-1,6.1561596E-1,-1.3208286E0,-5.350834E-1,1.2244928E0,-1.1969217E0,-1.3526666E0,-1.1483431E0,-1.3684908E-1,-1.3821532E0,7.989695E-1,1.3145945E0,-1.3828017E0,1.0300685E0,-1.3298596E0,-1.36658E-1,-1.2780361E0,-1.7725876E-1,4.715325E-1,-6.0400385E-1,-1.3712952E-1,-1.5473897E0,1.2891104E0,2.00229E-1,1.1615398E0,1.3537991E0,-1.3705923E-1,-1.4676898E0,1.3633994E0,-1.1932118E0,-1.3681105E-1,-6.7852214E-2,-1.3134114E0,-8.729196E-1,1.3475369E0,-1.2967495E0,1.1128882E0,-1.367843E-1,-7.739519E-1,4.1091713E-1,-1.5391821E0,-1.6556513E-1,1.3487188E0,1.0440052E0,-1.3333656E0,3.910044E-1,1.3286422E0,8.42878E-1,7.0629597E-1,1.3556334E0,-1.4368154E0,-1.5092311E0,-1.400783E-1,1.3669573E0,-1.3784003E0,5.357681E-1,6.984553E-1,-1.0325491E0,-9.439448E-2,-1.3187716E0,-1.3678527E-1,-3.988408E-1,1.3567284E-1,-1.3498317E-1,-1.3697064E-1,1.5429548E0,1.2969675E0,5.672808E-1,-1.2861903E0,-5.9540296E-1,-1.3636225E0,6.242453E-1,-1.5616411E-1,-1.5188994E-1,1.3534348E0,-1.6211638E-1,2.619645E-1,1.2475511E0,-1.4768927E0,-8.109675E-1,8.054861E-2,1.1504022E0,1.3673306E0,1.20105E0,-1.3940391E-1,9.763135E-1,-1.0241265E-1,1.218791E0,1.3115456E0,1.3647676E0,-1.4762743E0,-3.7686342E-1,-1.4185141E0,-1.5278331E0,1.367835E0,-1.2440681E-1,-1.3868941E-1,1.1846711E-1,1.0918177E0,-1.3634436E-1,1.2853923E0,1.8427986E-1,-1.3551747E0,2.872136E-1,-1.3527542E-1,1.1840255E0,-1.3686013E-1,-1.2525648E0,9.2209965E-1,-6.586637E-1,1.3564213E-1,1.7245235E-1,1.3247386E0,-8.045026E-1,-4.631587E-1,1.0418319E0,3.9350313E-1,-1.3065964E0,1.7211737E-2,-8.3225805E-1,-5.3803885E-1,-1.4140339E0,-1.381519E-1,7.1177936E-1,1.3584371E0,-1.3581954E-1,-1.0006065E0,1.0941321E0,-1.7587733E-1,1.2581222E0,-1.6310859E0,-1.3906028E0,4.458426E-1,-1.3246093E0,-1.3828443E-1,2.1694453E-1,-1.3795952E-1,1.1853002E0,1.3690246E0,-1.6870105E-1,-1.5763281E-1,1.2150941E0,-1.0407562E0,1.0316157E0,1.2572064E0,-5.6533116E-1,1.3305104E0,7.2260696E-1,1.3567543E0,1.1504012E0,1.3532492E0,1.367693E-1,-1.3696502E-1,-1.4952419E0,5.984061E-1,-1.5694244E-1,-1.3868684E-1,-1.455583E0,-1.4923527E0,-1.5405424E0,9.2945987E-1,1.3681102E-1,-1.4732899E-1,1.2327678E0,-1.744189E-1,1.3276261E-1,-1.4096223E-1,1.0514017E-1,-1.3765442E-1,2.5928486E-2,1.1001112E-1,-1.5680163E-1,1.3607101E-1,-1.20300844E-1,1.8692495E-2,-1.3007262E-1,6.648774E-4,1.3815801E-1,-1.0485091E-1,-3.3935949E-3,1.098331E-1,1.3700567E-1,-9.166697E-3,-1.7228208E-1,-1.7326204E-1,7.844363E-2,1.1645719E-1,3.99565E-2,1.22412875E-1,-9.453536E-2,-1.374685E-1,-1.1108714E-1,-2.6470188E-2,9.064005E-2,-1.356572E-1,-7.269215E-2,-1.4070459E-1,7.381692E-2,-1.4347582E-1,-4.5875516E-2,7.948443E-2,-2.663051E-2,9.5451765E-2,1.3616948E-1,7.749049E-2,-1.9315347E-1,2.2345185E-2,1.2577759E-1,1.2630036E-1,-1.7774853E-1,-1.5423171E-1,-2.4578352E-1,-1.21376716E-1,-1.4083052E-1,-1.7309122E-1,1.1582219E-1,-7.387974E-2,-1.4261153E-1,-8.9088954E-2,3.130823E-2,1.18881226E-1,-1.7908566E-1,1.0414534E-1,1.3706191E-1,8.143889E-2,1.3002954E-1,7.702973E-2,-1.2655209E-1,-5.8598638E-2,1.07886195E-1,1.2878722E-1,-9.479719E-2,-1.3813095E-1,-4.133746E-3,1.1373122E-1,1.3804565E-1,-1.4793348E-1,1.3988939E-1,1.370769E-1,1.3303155E-1,-1.4814651E-1,1.2813109E-1,1.3671176E-1,1.272474E-1,-1.5291129E-1,-1.4363046E-1,-1.4490089E-1,1.332349E-1,-1.4105718E-1,-1.5351383E-1,-1.5170382E-1,-1.4544077E-1,-1.5501784E-1,-1.4970815E-1,-1.0559628E-1,1.250416E-1,1.3143916E-1,-1.2708192E-1],"categories":[],"categories_nodes":[],"categories_segments":[],"categories_sizes":[],"default_left":[0,0,0,0,0,0,0,0,0,0,0,0,0,0,0,0,0,0,0,0,0,0,0,0,0,0,0,0,0,0,0,0,0,0,0,0,0,0,0,0,0,0,0,0,0,0,0,0,0,0,0,0,0,0,0,0,0,0,0,0,0,0,0,0,0,0,0,0,0,0,0,0,0,0,0,0,0,0,0,0,0,0,0,0,0,0,0,0,0,0,0,0,0,0,0,0,0,0,0,0,0,0,0,0,0,0,0,0,0,0,0,0,0,0,0,0,0,0,0,0,0,0,0,0,0,0,0,0,0,0,0,0,0,0,0,0,0,0,0,0,0,0,0,0,0,0,0,0,0,0,0,0,0,0,0,0,0,0,0,0,0,0,0,0,0,0,0,0,0,0,0,0,0,0,0,0,0,0,0,0,0,0,0,0,0,0,0,0,0,0,0,0,0,0,0,0,0,0,0,0,0,0,0,0,0,0,0,0,0,0,0,0,0,0,0,0,0,0,0,0,0,0,0,0,0,0,0,0,0,0,0,0,0,0,0,0,0,0,0,0,0,0,0,0,0,0,0,0,0,0,0,0,0,0,0,0,0,0,0],"id":6,"left_children":[1,3,5,7,9,11,13,15,17,19,21,23,25,27,29,31,-1,33,35,37,39,-1,41,43,45,47,49,-1,51,53,55,-1,57,59,61,63,65,67,-1,69,71,73,-1,75,77,79,81,83,85,87,89,91,93,-1,95,97,99,101,103,105,107,-1,109,-1,-1,-1,111,113,115,117,119,121,123,-1,-1,125,-1,127,129,131,133,135,137,139,141,-1,143,145,147,149,151,153,155,157,159,161,-1,-1,-1,163,-1,165,167,169,171,-1,173,-1,175,177,179,-1,-1,181,183,185,187,189,191,193,195,197,199,-1,201,203,-1,205,207,-1,209,211,213,215,217,-1,219,-1,221,223,-1,-1,225,227,229,231,233,235,237,239,241,243,-1,-1,245,247,-1,-1,249,251,253,255,-1,-1,257,-1,-1,-1,-1,-1,-1,-1,-1,-1,-1,-1,-1,-1,-1,-1,-1,-1,-1,-1,-1,-1,-1,-1,-1,-1,-1,-1,-1,-1,-1,-1,-1,-1,-1,-1,-1,-1,-1,-1,-1,-1,-1,-1,-1,-1,-1,-1,-1,-1,-1,-1,-1,-1,-1,-1,-1,-1,-1,-1,-1,-1,-1,-1,-1,-1,-1,-1,-1,-1,-1,-1,-1,-1,-1,-1,-1,-1,-1,-1,-1,-1,-1,-1,-1,-1,-1,-1,-1,-1,-1,-1,-1,-1,-1],"loss_changes":[8.0715256E5,8.892516E4,9.459901E5,1.5276562E3,1.0064758E5,2.4599625E4,8.922547E4,7.278125E1,5.4652773E3,5.76808E4,1.6904688E2,3.2904336E4,3.1756875E3,2.0415625E2,1.2307551E4,4.301172E3,0E0,5.475E2,8.731552E3,1.0399356E5,1.9801605E4,0E0,2.6738281E0,8.993672E2,1.4767119E4,5.7488594E3,4.996875E2,0E0,2.9894531E1,1.439336E2,6.941106E2,0E0,1.9392551E3,2.2992578E2,7.2154517E2,5.552295E1,6.131821E2,6.5639062E3,0E0,8.992918E3,6.234494E3,1.2109375E-1,0E0,6.9672656E2,1.9201973E3,4.174922E2,1.0582797E4,3.4803125E2,1.1089633E4,4.945039E2,1.675E2,6.0016016E2,1.5787109E1,0E0,3.475586E1,4.423169E1,2.2349908E2,4.4098004E2,4.9484778E2,2.5129141E2,1.1392969E2,0E0,5.405685E2,0E0,0E0,0E0,1.7895508E-1,2.8532578E3,8.064397E3,8.716719E2,1.0580787E4,7.2798584E1,2.581957E3,0E0,0E0,6.734219E2,0E0,2.6203813E3,3.0644824E2,5.6000977E1,7.789772E2,6.3603E3,1.1517168E3,2.8352344E2,6.4508984E2,0E0,3.9117422E3,2.9251056E2,3.95166E1,5.241797E2,9.875E0,2.5958984E1,6.020544E2,1.2158203E-1,1.6777344E0,4.6875E-1,0E0,0E0,0E0,6.081099E1,0E0,8.964612E1,1.0801827E3,3.2557007E1,3.4699576E2,0E0,3.4333298E1,0E0,1.0446406E3,1.0893741E2,3.202918E2,0E0,0E0,4.9340625E2,4.1751672E2,8.237819E3,8.8964355E2,3.4127203E2,3.331211E2,5.09722E3,2.9034219E3,1.1563105E2,3.2306885E1,0E0,1.1446431E3,6.3726562E1,0E0,1.6393159E3,2.1387903E2,0E0,1.4361133E2,1.1110986E2,7.102539E0,5.456183E2,4.9859497E1,0E0,3.1046577E3,0E0,1.364336E2,2.69375E1,0E0,0E0,5.59084E2,3.8199878E2,2.6084922E3,9.205063E0,1.4811754E2,4.1696777E0,2.0516655E2,1.9054688E1,5.451459E3,7.736719E1,0E0,0E0,2.1248047E1,4.3026242E2,0E0,0E0,7.709961E-1,1.4648438E-3,3.8378906E-1,9.072248E0,0E0,0E0,3.3389114E1,0E0,0E0,0E0,0E0,0E0,0E0,0E0,0E0,0E0,0E0,0E0,0E0,0E0,0E0,0E0,0E0,0E0,0E0,0E0,0E0,0E0,0E0,0E0,0E0,0E0,0E0,0E0,0E0,0E0,0E0,0E0,0E0,0E0,0E0,0E0,0E0,0E0,0E0,0E0,0E0,0E0,0E0,0E0,0E0,0E0,0E0,0E0,0E0,0E0,0E0,0E0,0E0,0E0,0E0,0E0,0E0,0E0,0E0,0E0,0E0,0E0,0E0,0E0,0E0,0E0,0E0,0E0,0E0,0E0,0E0,0E0,0E0,0E0,0E0,0E0,0E0,0E0,0E0,0E0,0E0,0E0,0E0,0E0,0E0,0E0,0E0,0E0,0E0,0E0,0E0,0E0,0E0,0E0,0E0],"parents":[2147483647,0,0,1,1,2,2,3,3,4,4,5,5,6,6,7,7,8,8,9,9,10,10,11,11,12,12,13,13,14,14,15,15,17,17,18,18,19,19,20,20,22,22,23,23,24,24,25,25,26,26,28,28,29,29,30,30,32,32,33,33,34,34,35,35,36,36,37,37,39,39,40,40,41,41,43,43,44,44,45,45,46,46,47,47,48,48,49,49,50,50,51,51,52,52,54,54,55,55,56,56,57,57,58,58,59,59,60,60,62,62,66,66,67,67,68,68,69,69,70,70,71,71,72,72,75,75,77,77,78,78,79,79,80,80,81,81,82,82,83,83,84,84,86,86,87,87,88,88,89,89,90,90,91,91,92,92,93,93,94,94,95,95,99,99,101,101,102,102,103,103,104,104,106,106,108,108,109,109,110,110,113,113,114,114,115,115,116,116,117,117,118,118,119,119,120,120,121,121,122,122,124,124,125,125,127,127,128,128,130,130,131,131,132,132,133,133,134,134,136,136,138,138,139,139,142,142,143,143,144,144,145,145,146,146,147,147,148,148,149,149,150,150,151,151,154,154,155,155,158,158,159,159,160,160,161,161,164,164],"right_children":[2,4,6,8,10,12,14,16,18,20,22,24,26,28,30,32,-1,34,36,38,40,-1,42,44,46,48,50,-1,52,54,56,-1,58,60,62,64,66,68,-1,70,72,74,-1,76,78,80,82,84,86,88,90,92,94,-1,96,98,100,102,104,106,108,-1,110,-1,-1,-1,112,114,116,118,120,122,124,-1,-1,126,-1,128,130,132,134,136,138,140,142,-1,144,146,148,150,152,154,156,158,160,162,-1,-1,-1,164,-1,166,168,170,172,-1,174,-1,176,178,180,-1,-1,182,184,186,188,190,192,194,196,198,200,-1,202,204,-1,206,208,-1,210,212,214,216,218,-1,220,-1,222,224,-1,-1,226,228,230,232,234,236,238,240,242,244,-1,-1,246,248,-1,-1,250,252,254,256,-1,-1,258,-1,-1,-1,-1,-1,-1,-1,-1,-1,-1,-1,-1,-1,-1,-1,-1,-1,-1,-1,-1,-1,-1,-1,-1,-1,-1,-1,-1,-1,-1,-1,-1,-1,-1,-1,-1,-1,-1,-1,-1,-1,-1,-1,-1,-1,-1,-1,-1,-1,-1,-1,-1,-1,-1,-1,-1,-1,-1,-1,-1,-1,-1,-1,-1,-1,-1,-1,-1,-1,-1,-1,-1,-1,-1,-1,-1,-1,-1,-1,-1,-1,-1,-1,-1,-1,-1,-1,-1,-1,-1,-1,-1,-1,-1],"split_conditions":[-2.882843E-1,-3.0587584E-1,-2.783059E-1,-3.063211E-1,-2.783059E-1,-2.6372877E-1,2.691214E0,-3.0160806E-1,2.691214E0,-3.1767902E-1,1.318317E0,-2.9955983E-1,-2.1846086E-1,1.318317E0,-3.36048E-1,1.318317E0,-1.36658E-1,1.0176953E0,-3.36048E-1,1.4995328E0,1.0176953E0,-1.3712952E-1,1.0974958E0,-3.1526834E-1,-3.0493852E-1,-2.559698E-1,-1.562519E0,-1.3705923E-1,-1.8322973E-1,-1.9421898E-1,4.2318325E-2,-1.3681105E-1,-3.135168E-1,-1.6423193E0,1.318317E0,-3.08042E-1,1.318317E0,-3.310638E-1,-1.367843E-1,-2.9926407E-1,-2.9813913E-1,-2.9464012E-1,-1.6556513E-1,-3.08042E-1,-2.7849114E-1,-3.1423506E-1,1.0176953E0,-2.9224086E-1,1.318317E0,-1.2313767E-1,-1.6481549E-1,-1.6844338E-1,-1.396268E0,-1.400783E-1,-3.1423506E-1,1.318317E0,-2.554738E-1,-3.36048E-1,-3.0914047E-1,1.318317E0,1.318317E0,-1.3678527E-1,-3.285627E-1,1.3567284E-1,-1.3498317E-1,-1.3697064E-1,-1.6290193E0,-3.117829E-1,-2.990783E-1,-1.6356694E0,-2.3074047E-1,-3.1526834E-1,1.318317E0,-1.5616411E-1,-1.5188994E-1,1.4995328E0,-1.6211638E-1,-3.135168E-1,1.318317E0,-2.7813134E-1,-2.9224086E-1,1.318317E0,1.318317E0,-3.0493852E-1,1.318317E0,-1.3940391E-1,-2.9926407E-1,-2.7414802E-1,-1.7704654E-1,-1.8290527E-1,